{"learner":{"attributes":{"scikit_learn":"{\"_estimator_type\": \"classifier\"}"},"feature_names":["Age","Gender","dioptre_1","dioptre_2","astigmatism","Phakic/Pseudophakic","Pneumatic","Pachymetry","Axial_Length"],"feature_types":["int","int","float","float","float","float","float","float","float"],"gradient_booster":{"model":{"gbtree_model_param":{"num_parallel_tree":"1","num_trees":"300"},"iteration_indptr":[0,3,6,9,12,15,18,21,24,27,30,33,36,39,42,45,48,51,54,57,60,63,66,69,72,75,78,81,84,87,90,93,96,99,102,105,108,111,114,117,120,123,126,129,132,135,138,141,144,147,150,153,156,159,162,165,168,171,174,177,180,183,186,189,192,195,198,201,204,207,210,213,216,219,222,225,228,231,234,237,240,243,246,249,252,255,258,261,264,267,270,273,276,279,282,285,288,291,294,297,300],"tree_info":[0,1,2,0,1,2,0,1,2,0,1,2,0,1,2,0,1,2,0,1,2,0,1,2,0,1,2,0,1,2,0,1,2,0,1,2,0,1,2,0,1,2,0,1,2,0,1,2,0,1,2,0,1,2,0,1,2,0,1,2,0,1,2,0,1,2,0,1,2,0,1,2,0,1,2,0,1,2,0,1,2,0,1,2,0,1,2,0,1,2,0,1,2,0,1,2,0,1,2,0,1,2,0,1,2,0,1,2,0,1,2,0,1,2,0,1,2,0,1,2,0,1,2,0,1,2,0,1,2,0,1,2,0,1,2,0,1,2,0,1,2,0,1,2,0,1,2,0,1,2,0,1,2,0,1,2,0,1,2,0,1,2,0,1,2,0,1,2,0,1,2,0,1,2,0,1,2,0,1,2,0,1,2,0,1,2,0,1,2,0,1,2,0,1,2,0,1,2,0,1,2,0,1,2,0,1,2,0,1,2,0,1,2,0,1,2,0,1,2,0,1,2,0,1,2,0,1,2,0,1,2,0,1,2,0,1,2,0,1,2,0,1,2,0,1,2,0,1,2,0,1,2,0,1,2,0,1,2,0,1,2,0,1,2,0,1,2,0,1,2,0,1,2,0,1,2,0,1,2,0,1,2,0,1,2,0,1,2,0,1,2,0,1,2,0,1,2,0,1,2],"trees":[{"base_weights":[7.30038E-1,1.1515151E0,4.6706584E-1,5.121951E-1,1.2113208E0,-8.4507085E-2,8.484848E-1,2.5714284E-1,3.1034475E-2,5.454545E-1,1.2572614E0,2.6756757E-1,-2.756757E-1,1.0480349E0,1.5584412E-1,-7.663455E-9,2.5714284E-1,1.2857142E-1,3.8515285E-1,-5.049505E-1,-4.037734E-8,1.1059908E0,-7.663455E-9,2.4545455E-1,-2.8301892E-1,-2.44898E-1,-1.918033E-1,2.5714284E-1,-2.2222227E-1,1.2700729E0,7.4157304E-1,1.2857142E-1,-1.7560977E-1,-1.4400001E-1,-9.753488E-9,1.7999999E-1,-1.523077E-1,1.2857142E-1,3.96E-1,3.1034475E-2,2.7391306E-1],"categories":[],"categories_nodes":[],"categories_segments":[],"categories_sizes":[],"default_left":[0,0,0,0,0,0,0,0,0,0,0,0,0,0,0,0,0,0,0,0,0,0,0,0,0,0,0,0,0,0,0,0,0,0,0,0,0,0,0,0,0],"id":0,"left_children":[1,3,5,7,9,11,13,-1,-1,15,17,-1,19,21,23,-1,-1,-1,-1,25,27,29,-1,-1,31,33,-1,-1,35,37,39,-1,-1,-1,-1,-1,-1,-1,-1,-1,-1],"loss_changes":[9.178852E0,6.413231E-1,1.1782876E1,5.5364656E-1,2.149353E-1,4.6634183E0,4.3978176E0,0E0,0E0,6.233767E-1,3.9634705E-2,0E0,1.2992241E0,1.5454865E0,2.7184515E0,0E0,0E0,0E0,0E0,2.35636E-1,2.1587303E0,4.9986076E-1,0E0,0E0,1.5178488E0,3.1346935E-1,0E0,0E0,2.417094E0,7.382774E-2,9.8758554E-1,0E0,0E0,0E0,0E0,0E0,0E0,0E0,0E0,0E0,0E0],"parents":[2147483647,0,0,1,1,2,2,3,3,4,4,5,5,6,6,9,9,10,10,12,12,13,13,14,14,19,19,20,20,21,21,24,24,25,25,28,28,29,29,30,30],"right_children":[2,4,6,8,10,12,14,-1,-1,16,18,-1,20,22,24,-1,-1,-1,-1,26,28,30,-1,-1,32,34,-1,-1,36,38,40,-1,-1,-1,-1,-1,-1,-1,-1,-1,-1],"split_conditions":[1.6E1,1.1E1,1.7E1,5.7E1,3E1,1E0,2.2E1,2.5714284E-1,3.1034475E-2,5E-1,-3E0,2.6756757E-1,-1E0,0E0,0E0,-7.663455E-9,2.5714284E-1,1.2857142E-1,3.8515285E-1,2.3385E1,6.4E1,6.5E1,-7.663455E-9,2.4545455E-1,2.263E1,6.9E1,-1.918033E-1,2.5714284E-1,2.229E1,-2.5E0,7.6E1,1.2857142E-1,-1.7560977E-1,-1.4400001E-1,-9.753488E-9,1.7999999E-1,-1.523077E-1,1.2857142E-1,3.96E-1,3.1034475E-2,2.7391306E-1],"split_indices":[6,6,6,0,4,5,6,0,0,2,2,0,3,3,2,0,0,0,0,8,4,0,0,0,8,0,0,0,8,2,4,0,0,0,0,0,0,0,0,0,0],"split_type":[0,0,0,0,0,0,0,0,0,0,0,0,0,0,0,0,0,0,0,0,0,0,0,0,0,0,0,0,0,0,0,0,0,0,0,0,0,0,0,0,0],"sum_hessian":[8.6666664E1,3.1999998E1,5.4666664E1,3.5555553E0,2.8444443E1,2.2666666E1,3.1999998E1,1.3333333E0,2.222222E0,2.6666665E0,2.5777777E1,3.111111E0,1.9555553E1,2.4444443E1,7.5555553E0,1.3333333E0,1.3333333E0,1.3333333E0,2.4444443E1,1.0222221E1,9.333333E0,2.311111E1,1.3333333E0,2.6666665E0,4.8888884E0,4.444444E0,5.7777777E0,1.3333333E0,7.9999995E0,1.4222221E1,8.888888E0,1.3333333E0,3.5555553E0,1.7777777E0,2.6666665E0,1.7777777E0,6.222222E0,1.3333333E0,1.2888888E1,2.222222E0,6.666666E0],"tree_param":{"num_deleted":"0","num_feature":"9","num_nodes":"41","size_leaf_vector":"1"}},{"base_weights":[-3.193917E-1,-5.820896E-1,6.382974E-2,-2.0716985E-1,-4.2253527E-1,-4.285715E-1,2.8326178E-1,-5.2849746E-1,1.2413793E-1,1.2857142E-1,-5.806452E-1,6.72E-1,-1.538462E-1,3.1034475E-2,-6.0693645E-1,-1.972603E-1,-6.206898E-2,2.0547941E-1,3.3934426E-1,1.9999997E-1,-3.3333337E-1,-3.600001E-2,-1.9490448E-1,4.897959E-1,-2.727273E-1,-6.206898E-2,1.7999999E-1,1.6216213E-1,-1.8679248E-1,2.8800002E-1,-9.753488E-9,-7.663455E-9,-1.2857145E-1,2.5714284E-1,-1.4400001E-1],"categories":[],"categories_nodes":[],"categories_segments":[],"categories_sizes":[],"default_left":[0,0,0,0,0,0,0,0,0,0,0,0,0,0,0,0,0,0,0,0,0,0,0,0,0,0,0,0,0,0,0,0,0,0,0],"id":1,"left_children":[1,3,5,-1,7,9,11,13,-1,-1,15,17,19,-1,21,-1,-1,23,-1,25,27,-1,-1,29,31,-1,-1,33,-1,-1,-1,-1,-1,-1,-1],"loss_changes":[8.862686E0,6.1014366E-1,4.071174E0,0E0,2.3160095E0,1.7695854E0,4.5024385E0,1.1257701E0,0E0,0E0,1.6090941E-1,2.742597E0,8.923077E-1,0E0,3.2213354E-1,0E0,0E0,1.236384E0,0E0,9.3793106E-1,1.3911271E0,0E0,0E0,1.2538774E0,1.5584415E-1,0E0,0E0,2.2461777E0,0E0,0E0,0E0,0E0,0E0,0E0,0E0],"parents":[2147483647,0,0,1,1,2,2,4,4,5,5,6,6,7,7,10,10,11,11,12,12,14,14,17,17,19,19,20,20,23,23,24,24,27,27],"right_children":[2,4,6,-1,8,10,12,14,-1,-1,16,18,20,-1,22,-1,-1,24,-1,26,28,-1,-1,30,32,-1,-1,34,-1,-1,-1,-1,-1,-1,-1],"split_conditions":[6.5E1,5.5E1,1.6E1,-2.0716985E-1,1.6E2,1.1E1,1.7E1,5.6E1,1.2413793E-1,1.2857142E-1,2E0,2.3385E1,-1.5E0,3.1034475E-2,-1.25E0,-1.972603E-1,-6.206898E-2,5.56E2,3.3934426E-1,1E0,7.6E1,-3.600001E-2,-1.9490448E-1,2.201E1,6.7E1,-6.206898E-2,1.7999999E-1,1E0,-1.8679248E-1,2.8800002E-1,-9.753488E-9,-7.663455E-9,-1.2857145E-1,2.5714284E-1,-1.4400001E-1],"split_indices":[0,0,6,0,4,6,6,0,0,0,2,8,3,0,3,0,0,7,0,1,4,0,0,8,0,0,0,5,0,0,0,0,0,0,0],"split_type":[0,0,0,0,0,0,0,0,0,0,0,0,0,0,0,0,0,0,0,0,0,0,0,0,0,0,0,0,0,0,0,0,0,0,0],"sum_hessian":[8.6666664E1,5.1111107E1,3.5555553E1,2.8444443E1,2.2666666E1,1.0666666E1,2.4888887E1,2.0444443E1,2.222222E0,1.3333333E0,9.333333E0,1.2888888E1,1.1999999E1,2.222222E0,1.8222221E1,7.1111107E0,2.222222E0,7.1111107E0,5.7777777E0,3.9999998E0,7.9999995E0,1.7777777E0,1.6444443E1,4.444444E0,2.6666665E0,2.222222E0,1.7777777E0,3.111111E0,4.8888884E0,1.7777777E0,2.6666665E0,1.3333333E0,1.3333333E0,1.3333333E0,1.7777777E0],"tree_param":{"num_deleted":"0","num_feature":"9","num_nodes":"35","size_leaf_vector":"1"}},{"base_weights":[-4.1064644E-1,-4.909848E-1,3.8961035E-1,1.2857142E-1,-5.1198876E-1,-1.6363637E-1,9.0566033E-1,-5.324676E-1,7.2E-2,-7.663455E-9,3.512195E-1,-9.230773E-2,-5.698588E-1,-1.7560977E-1,5.454545E-1,-3.3600006E-1,-6.161229E-1,-7.663455E-9,2.5714284E-1,1.2857142E-1,-1.3539825E-1,-1.8862279E-1,-6.206898E-2],"categories":[],"categories_nodes":[],"categories_segments":[],"categories_sizes":[],"default_left":[0,0,0,0,0,0,0,0,0,0,0,0,0,0,0,0,0,0,0,0,0,0,0],"id":2,"left_children":[1,3,5,-1,7,-1,9,11,-1,-1,-1,13,15,-1,17,19,21,-1,-1,-1,-1,-1,-1],"loss_changes":[5.8274984E0,1.766716E0,4.622397E0,0E0,1.3409576E0,0E0,1.4137135E0,1.2146721E0,0E0,0E0,0E0,2.590346E0,5.5874443E-1,0E0,6.233767E-1,1.4180936E0,1.6887283E-1,0E0,0E0,0E0,0E0,0E0,0E0],"parents":[2147483647,0,0,1,1,2,2,4,4,6,6,7,7,11,11,12,12,14,14,15,15,16,16],"right_children":[2,4,6,-1,8,-1,10,12,-1,-1,-1,14,16,-1,18,20,22,-1,-1,-1,-1,-1,-1],"split_conditions":[2.2E1,5E0,0E0,1.2857142E-1,6.03E2,-1.6363637E-1,2.263E1,-2E0,7.2E-2,-7.663455E-9,3.512195E-1,-3.75E0,7.6E1,-1.7560977E-1,4.4E1,2.207E1,8E1,-7.663455E-9,2.5714284E-1,1.2857142E-1,-1.3539825E-1,-1.8862279E-1,-6.206898E-2],"split_indices":[6,4,2,0,7,0,8,2,0,0,0,2,4,0,0,8,0,0,0,0,0,0,0],"split_type":[0,0,0,0,0,0,0,0,0,0,0,0,0,0,0,0,0,0,0,0,0,0,0],"sum_hessian":[8.6666664E1,7.911111E1,7.5555553E0,1.3333333E0,7.777777E1,2.6666665E0,4.8888884E0,7.599999E1,1.7777777E0,1.3333333E0,3.5555553E0,6.222222E0,6.977777E1,3.5555553E0,2.6666665E0,1.2888888E1,5.6888885E1,1.3333333E0,1.3333333E0,1.3333333E0,1.1555555E1,5.4666664E1,2.222222E0],"tree_param":{"num_deleted":"0","num_feature":"9","num_nodes":"23","size_leaf_vector":"1"}},{"base_weights":[5.3606695E-1,8.190997E-1,3.48305E-1,5.210929E-1,8.8762957E-1,-8.679105E-2,6.260874E-1,2.6920092E-1,7.076377E-2,2.9826736E-1,5.893811E-1,2.0030953E-1,-2.504889E-1,7.545497E-1,1.328383E-1,1.2335487E-1,-7.6749265E-2,7.247946E-1,-3.5137173E-2,-4.6968248E-1,4.5581497E-3,-1.5628414E-2,7.986014E-1,1.8812324E-1,-2.3801136E-1,2.6777083E-1,6.703169E-2,-2.3138776E-1,-1.79142E-1,2.2525868E-1,-2.0253384E-1,8.44486E-1,4.160075E-2,1.050173E-1,-1.5666306E-1,5.5326694E-3,-1.4231293E-1,1.4685933E-1,-1.3989478E-1,2.6941115E-1,4.034893E-2],"categories":[],"categories_nodes":[],"categories_segments":[],"categories_sizes":[],"default_left":[0,0,0,0,0,0,0,0,0,0,0,0,0,0,0,0,0,0,0,0,0,0,0,0,0,0,0,0,0,0,0,0,0,0,0,0,0,0,0,0,0],"id":3,"left_children":[1,3,5,7,9,11,13,-1,15,-1,17,-1,19,21,23,-1,-1,25,-1,27,29,-1,31,-1,33,-1,-1,35,-1,-1,37,39,-1,-1,-1,-1,-1,-1,-1,-1,-1],"loss_changes":[4.660473E0,2.8035736E-1,7.026766E0,1.4991581E0,3.0908012E-1,3.0521064E0,2.1385117E0,0E0,6.926313E-1,0E0,1.0290291E0,0E0,1.1157899E0,1.0300684E0,1.7097896E0,0E0,0E0,5.0885534E-1,0E0,1.8750906E-1,1.7281544E0,0E0,6.8346596E-1,0E0,1.116905E0,0E0,0E0,3.346992E-1,0E0,0E0,1.8292977E0,8.115978E-1,0E0,0E0,0E0,0E0,0E0,0E0,0E0,0E0,0E0],"parents":[2147483647,0,0,1,1,2,2,3,3,4,4,5,5,6,6,8,8,10,10,12,12,13,13,14,14,17,17,19,19,20,20,22,22,24,24,27,27,30,30,31,31],"right_children":[2,4,6,8,10,12,14,-1,16,-1,18,-1,20,22,24,-1,-1,26,-1,28,30,-1,32,-1,34,-1,-1,36,-1,-1,38,40,-1,-1,-1,-1,-1,-1,-1,-1,-1],"split_conditions":[1.6E1,7.9E1,1.7E1,5.3E2,1.18E2,1E0,2.2E1,2.6920092E-1,2.315E1,2.9826736E-1,6.5E1,2.0030953E-1,-1E0,7E0,0E0,1.2335487E-1,-7.6749265E-2,7.5E-1,-3.5137173E-2,2.3385E1,6.4E1,-1.5628414E-2,2.509E1,1.8812324E-1,2.263E1,2.6777083E-1,6.703169E-2,9.1E1,-1.79142E-1,2.2525868E-1,2.229E1,6E2,4.160075E-2,1.050173E-1,-1.5666306E-1,5.5326694E-3,-1.4231293E-1,1.4685933E-1,-1.3989478E-1,2.6941115E-1,4.034893E-2],"split_indices":[6,4,6,7,4,5,6,0,8,0,0,0,3,4,2,0,0,2,0,8,4,0,8,0,8,0,0,4,0,0,8,7,0,0,0,0,0,0,0,0,0],"split_type":[0,0,0,0,0,0,0,0,0,0,0,0,0,0,0,0,0,0,0,0,0,0,0,0,0,0,0,0,0,0,0,0,0,0,0,0,0,0,0,0,0],"sum_hessian":[9.206568E1,3.537655E1,5.6689133E1,8.222842E0,2.7153706E1,2.235758E1,3.433155E1,3.9391315E0,4.2837105E0,1.8285036E1,8.8686695E0,3.437085E0,1.8920496E1,2.681744E1,7.514112E0,1.9706471E0,2.3130634E0,7.420516E0,1.4481534E0,9.722873E0,9.197623E0,1.3792362E0,2.5438204E1,2.9249923E0,4.58912E0,4.975269E0,2.4452474E0,4.369346E0,5.3535266E0,1.4275116E0,7.7701116E0,2.352301E1,1.9151933E0,1.4197056E0,3.1694143E0,2.6099823E0,1.759364E0,1.9081161E0,5.8619957E0,2.1626936E1,1.896075E0],"tree_param":{"num_deleted":"0","num_feature":"9","num_nodes":"41","size_leaf_vector":"1"}},{"base_weights":[-2.6746058E-1,-4.2795563E-1,2.3654395E-1,-6.190826E-1,-2.835139E-1,4.9695054E-1,-1.3516358E-1,-3.1381384E-1,-1.9590575E-1,-5.441616E-1,-6.0231972E-2,6.566948E-1,-5.4118577E-2,-4.0917185E-1,2.213573E-1,-1.4315198E-1,2.341887E-2,-1.0338651E-2,-1.925299E-1,2.885778E-1,-3.4000102E-1,2.7124545E-1,8.221477E-1,1.0443514E-2,-1.637953E-1,-1.2601061E-1,1.7797193E-1,-1.2918352E-1,1.2319282E-1,-2.5829902E-1,5.14466E-1,-1.7405936E-1,-8.2911894E-2,1.8559271E-1,-1.1337937E-1,1.0072137E-1,3.0175513E-1,-1.3139758E-1,1.2553877E-2,1.8718317E-2,2.1009204E-1,6.718995E-2,-9.7955376E-2],"categories":[],"categories_nodes":[],"categories_segments":[],"categories_sizes":[],"default_left":[0,0,0,0,0,0,0,0,0,0,0,0,0,0,0,0,0,0,0,0,0,0,0,0,0,0,0,0,0,0,0,0,0,0,0,0,0,0,0,0,0,0,0],"id":4,"left_children":[1,3,5,7,9,11,13,15,-1,17,19,21,-1,23,25,-1,-1,27,-1,29,31,33,35,-1,-1,-1,-1,-1,-1,37,39,-1,41,-1,-1,-1,-1,-1,-1,-1,-1,-1,-1],"loss_changes":[6.728985E0,1.5499439E0,2.0450459E0,6.5029144E-2,2.1463478E0,1.4417324E0,9.897132E-1,3.2738578E-1,0E0,8.870282E-1,2.1758916E0,4.2183065E-1,0E0,3.5645062E-1,1.3580073E0,0E0,0E0,8.25732E-1,0E0,1.370372E0,7.098534E-1,1.2552153E0,2.504487E-1,0E0,0E0,0E0,0E0,0E0,0E0,2.1216503E-1,5.799763E-1,0E0,6.0356116E-1,0E0,0E0,0E0,0E0,0E0,0E0,0E0,0E0,0E0,0E0],"parents":[2147483647,0,0,1,1,2,2,3,3,4,4,5,5,6,6,7,7,9,9,10,10,11,11,13,13,14,14,17,17,19,19,20,20,21,21,22,22,29,29,30,30,32,32],"right_children":[2,4,6,8,10,12,14,16,-1,18,20,22,-1,24,26,-1,-1,28,-1,30,32,34,36,-1,-1,-1,-1,-1,-1,38,40,-1,42,-1,-1,-1,-1,-1,-1,-1,-1,-1,-1],"split_conditions":[7E1,5.5E1,-1E0,4.4E1,1.6E1,3E0,2.298E1,2.5E1,-1.9590575E-1,1.1E1,5.41E2,5E-1,-5.4118577E-2,-7.5E-1,7.3E1,-1.4315198E-1,2.341887E-2,9.7E1,-1.925299E-1,5.09E2,6.5E1,0E0,1E0,1.0443514E-2,-1.637953E-1,-1.2601061E-1,1.7797193E-1,-1.2918352E-1,1.2319282E-1,6.2E1,5E-1,-1.7405936E-1,5.69E2,1.8559271E-1,-1.1337937E-1,1.0072137E-1,3.0175513E-1,-1.3139758E-1,1.2553877E-2,1.8718317E-2,2.1009204E-1,6.718995E-2,-9.7955376E-2],"split_indices":[0,0,3,4,6,2,8,4,0,6,7,2,0,3,0,0,0,4,0,7,0,2,1,0,0,0,0,0,0,0,2,0,7,0,0,0,0,0,0,0,0,0,0],"split_type":[0,0,0,0,0,0,0,0,0,0,0,0,0,0,0,0,0,0,0,0,0,0,0,0,0,0,0,0,0,0,0,0,0,0,0,0,0,0,0,0,0,0,0],"sum_hessian":[8.093517E1,6.150153E1,1.9433641E1,2.5058197E1,3.6443333E1,1.1229598E1,8.204042E0,3.5321922E0,2.1526005E1,1.6151642E1,2.0291693E1,9.111292E0,2.1183062E0,4.5553193E0,3.6487236E0,2.3393424E0,1.1928498E0,2.667637E0,1.3484004E1,9.017451E0,1.12742405E1,3.5290983E0,5.582194E0,1.2486745E0,3.3066447E0,1.2915972E0,2.3571265E0,1.323494E0,1.3441432E0,2.5939643E0,6.4234867E0,5.1788635E0,6.0953774E0,2.3295245E0,1.1995736E0,2.3054402E0,3.2767537E0,1.3352827E0,1.2586818E0,2.2604685E0,4.163018E0,2.733066E0,3.3623114E0],"tree_param":{"num_deleted":"0","num_feature":"9","num_nodes":"43","size_leaf_vector":"1"}},{"base_weights":[-3.463312E-1,-4.18808E-1,2.9887015E-1,1.1066481E-1,-4.3934864E-1,-1.4779739E-1,6.8040717E-1,-4.592397E-1,6.2656656E-2,-1.7749971E-3,2.6003247E-1,-4.7985518E-1,3.9096184E-2,-1.0030971E-1,-5.070771E-1,-1.5877849E-1,1.5653889E-1,-1.2750255E-1,-1.960439E-1],"categories":[],"categories_nodes":[],"categories_segments":[],"categories_sizes":[],"default_left":[0,0,0,0,0,0,0,0,0,0,0,0,0,0,0,0,0,0,0],"id":5,"left_children":[1,3,5,-1,7,-1,9,11,-1,-1,-1,13,-1,15,17,-1,-1,-1,-1],"loss_changes":[3.9023943E0,1.3437395E0,2.9749317E0,0E0,1.0195341E0,0E0,8.1324315E-1,9.1106606E-1,0E0,0E0,0E0,6.482916E-1,0E0,1.8173014E0,4.7794342E-1,0E0,0E0,0E0,0E0],"parents":[2147483647,0,0,1,1,2,2,4,4,6,6,7,7,11,11,13,13,14,14],"right_children":[2,4,6,-1,8,-1,10,12,-1,-1,-1,14,-1,16,18,-1,-1,-1,-1],"split_conditions":[2.2E1,5E0,0E0,1.1066481E-1,6.03E2,-1.4779739E-1,2.263E1,2.751E1,6.2656656E-2,-1.7749971E-3,2.6003247E-1,-2E0,3.9096184E-2,5.51E2,1.7E1,-1.5877849E-1,1.5653889E-1,-1.2750255E-1,-1.960439E-1],"split_indices":[6,4,2,0,7,0,8,8,0,0,0,2,0,7,6,0,0,0,0],"split_type":[0,0,0,0,0,0,0,0,0,0,0,0,0,0,0,0,0,0,0],"sum_hessian":[7.977529E1,7.203441E1,7.7408857E0,1.3997098E0,7.06347E1,2.4229803E0,5.3179054E0,6.8814545E1,1.8201518E0,1.3424412E0,3.9754643E0,6.666936E1,2.1451857E0,4.7752075E0,6.1894154E1,2.9147105E0,1.8604968E0,4.2162315E1,1.9731836E1],"tree_param":{"num_deleted":"0","num_feature":"9","num_nodes":"19","size_leaf_vector":"1"}},{"base_weights":[4.22627E-1,6.490456E-1,2.7047256E-1,4.0798295E-1,7.0535636E-1,-8.863638E-2,4.9522197E-1,2.1885012E-1,2.816734E-2,2.9084116E-1,7.505915E-1,5.3912E-1,-2.3133466E-1,5.875602E-1,1.2107523E-1,9.432081E-2,-7.273314E-2,1.7011422E-1,-4.890658E-2,2.5159466E-1,5.1777333E-1,5.6535214E-2,1.9531867E-1,2.5783157E-1,-3.228159E-1,6.2584466E-1,-2.3319142E-2,1.5110034E-1,-1.95736E-1,2.1934883E-1,1.1886581E-1,-1.0359543E-1,1.9772358E-1,6.9542184E-2,-4.7422767E-1,3.280356E-1,6.961298E-1,-1.4828292E-1,8.463122E-2,1.7333207E-1,-9.2769176E-2,-9.368803E-2,1.967425E-1,-1.7513287E-1,-8.830578E-2,-2.8613858E-2,1.7547032E-1,2.2675268E-1,7.461626E-2],"categories":[],"categories_nodes":[],"categories_segments":[],"categories_sizes":[],"default_left":[0,0,0,0,0,0,0,0,0,0,0,0,0,0,0,0,0,0,0,0,0,0,0,0,0,0,0,0,0,0,0,0,0,0,0,0,0,0,0,0,0,0,0,0,0,0,0,0,0],"id":6,"left_children":[1,3,5,7,9,11,13,-1,15,17,19,21,23,25,27,-1,-1,-1,-1,-1,29,-1,-1,31,33,35,-1,-1,37,-1,39,-1,-1,41,43,45,47,-1,-1,-1,-1,-1,-1,-1,-1,-1,-1,-1,-1],"loss_changes":[2.9820824E0,2.0258713E-1,4.6066403E0,1.1044434E0,3.0505466E-1,2.150104E0,1.1353836E0,0E0,4.8392493E-1,6.41371E-1,6.872177E-2,5.347812E-2,9.389317E-1,7.5546455E-1,1.0891571E0,0E0,0E0,0E0,0E0,0E0,7.08652E-1,0E0,0E0,1.0912439E0,1.0163736E0,3.2321548E-1,0E0,0E0,8.79907E-1,0E0,1.0531523E0,0E0,0E0,1.4318471E0,6.60429E-2,8.087102E-1,3.5776806E-1,0E0,0E0,0E0,0E0,0E0,0E0,0E0,0E0,0E0,0E0,0E0,0E0],"parents":[2147483647,0,0,1,1,2,2,3,3,4,4,5,5,6,6,8,8,9,9,10,10,11,11,12,12,13,13,14,14,20,20,23,23,24,24,25,25,28,28,30,30,33,33,34,34,35,35,36,36],"right_children":[2,4,6,8,10,12,14,-1,16,18,20,22,24,26,28,-1,-1,-1,-1,-1,30,-1,-1,32,34,36,-1,-1,38,-1,40,-1,-1,42,44,46,48,-1,-1,-1,-1,-1,-1,-1,-1,-1,-1,-1,-1],"split_conditions":[1.6E1,7.9E1,1.7E1,5.3E2,-1.5E0,1E0,2.2E1,2.1885012E-1,2.315E1,9.4E1,1.18E2,1E0,6.4E1,0E0,0E0,9.432081E-2,-7.273314E-2,1.7011422E-1,-4.890658E-2,2.5159466E-1,7.5E-1,5.6535214E-2,1.9531867E-1,-1E0,2.243E1,-1.25E0,-2.3319142E-2,1.5110034E-1,1.25E0,2.1934883E-1,2.266E1,-1.0359543E-1,1.9772358E-1,9.4E1,1E0,2.38E1,2.421E1,-1.4828292E-1,8.463122E-2,1.7333207E-1,-9.2769176E-2,-9.368803E-2,1.967425E-1,-1.7513287E-1,-8.830578E-2,-2.8613858E-2,1.7547032E-1,2.2675268E-1,7.461626E-2],"split_indices":[6,4,6,7,3,5,6,0,8,4,4,1,4,3,2,0,0,0,0,0,2,0,0,3,8,3,0,0,2,0,8,0,0,4,1,8,8,0,0,0,0,0,0,0,0,0,0,0,0],"split_type":[0,0,0,0,0,0,0,0,0,0,0,0,0,0,0,0,0,0,0,0,0,0,0,0,0,0,0,0,0,0,0,0,0,0,0,0,0,0,0,0,0,0,0,0,0,0,0,0,0],"sum_hessian":[9.065677E1,3.5123837E1,5.553293E1,8.21238E0,2.6911457E1,2.1609877E1,3.3923054E1,3.9489164E0,4.263464E0,3.3788352E0,2.3532623E1,3.487902E0,1.8121975E1,2.6750673E1,7.1723814E0,1.9932771E0,2.270187E0,1.9454925E0,1.4333427E0,1.5186554E1,8.346069E0,1.49334E0,1.9945619E0,2.5686333E0,1.5553341E1,2.5351122E1,1.3995513E0,2.981732E0,4.1906495E0,4.894773E0,3.451296E0,1.081829E0,1.4868042E0,4.48136E0,1.107198E1,5.9227448E0,1.9428377E1,2.5580554E0,1.6325943E0,1.4969606E0,1.9543355E0,2.996836E0,1.4845239E0,5.485635E0,5.586346E0,2.4737358E0,3.449009E0,1.6532522E1,2.895854E0],"tree_param":{"num_deleted":"0","num_feature":"9","num_nodes":"49","size_leaf_vector":"1"}},{"base_weights":[-2.270425E-1,-4.6364468E-1,6.730374E-2,-5.717288E-1,-3.1821674E-1,-3.0313265E-1,2.0429792E-1,-2.8269926E-1,-1.8185377E-1,-4.1556507E-1,8.810376E-2,9.6674584E-2,-4.494681E-1,4.345408E-1,-9.228421E-2,-1.3448957E-1,2.7786912E-2,4.2161677E-2,-4.9755347E-1,-1.3160744E-2,-1.6458803E-1,2.6266197E-2,6.8346643E-1,-2.2737126E-1,2.9250535E-1,-2.3419563E-2,-5.4088867E-1,-1.3157414E-1,2.2878343E-1,2.3314129E-1,8.616179E-2,6.526718E-2,-4.2185563E-1,1.3112886E-1,4.6932427E-3,-9.020932E-2,-1.7822926E-1,-2.8622314E-2,1.9017802E-1,1.5535013E-1,-1.2626313E-1,9.174223E-4,-1.6265099E-1],"categories":[],"categories_nodes":[],"categories_segments":[],"categories_sizes":[],"default_left":[0,0,0,0,0,0,0,0,0,0,0,0,0,0,0,0,0,0,0,0,0,0,0,0,0,0,0,0,0,0,0,0,0,0,0,0,0,0,0,0,0,0,0],"id":7,"left_children":[1,3,5,7,9,11,13,15,-1,17,-1,-1,19,21,23,-1,-1,-1,25,-1,-1,27,29,31,33,-1,35,-1,37,-1,-1,39,41,-1,-1,-1,-1,-1,-1,-1,-1,-1,-1],"loss_changes":[5.2814603E0,4.769888E-1,1.8110907E0,5.5583E-2,1.3209982E0,1.0332825E0,1.7991285E0,3.0886295E-1,0E0,8.805535E-1,0E0,0E0,3.091358E-1,1.4736624E0,6.9457394E-1,0E0,0E0,0E0,2.4345279E-1,0E0,0E0,7.2157484E-1,1.1375332E-1,5.685435E-1,1.3635555E-1,0E0,1.2378693E-3,0E0,7.5052595E-1,0E0,0E0,1.2434725E0,3.0045247E-1,0E0,0E0,0E0,0E0,0E0,0E0,0E0,0E0,0E0,0E0],"parents":[2147483647,0,0,1,1,2,2,3,3,4,4,5,5,6,6,7,7,9,9,12,12,13,13,14,14,18,18,21,21,22,22,23,23,24,24,26,26,28,28,31,31,32,32],"right_children":[2,4,6,8,10,12,14,16,-1,18,-1,-1,20,22,24,-1,-1,-1,26,-1,-1,28,30,32,34,-1,36,-1,38,-1,-1,40,42,-1,-1,-1,-1,-1,-1,-1,-1,-1,-1],"split_conditions":[6.5E1,5.5E1,1.6E1,4.4E1,1.6E2,1.1E1,1.7E1,5.47E2,-1.8185377E-1,5.6E1,8.810376E-2,9.6674584E-2,4.96E2,7.1E1,2.419E1,-1.3448957E-1,2.7786912E-2,4.2161677E-2,-1.25E0,-1.3160744E-2,-1.6458803E-1,5.32E2,7.9E1,2.261E1,2.5E-1,-2.3419563E-2,4.93E2,-1.3157414E-1,1.5E0,2.3314129E-1,8.616179E-2,1.9E1,4.6E1,1.3112886E-1,4.6932427E-3,-9.020932E-2,-1.7822926E-1,-2.8622314E-2,1.9017802E-1,1.5535013E-1,-1.2626313E-1,9.174223E-4,-1.6265099E-1],"split_indices":[0,0,6,4,4,6,6,7,0,0,0,0,7,0,8,0,0,0,3,0,0,7,0,8,2,0,7,0,2,0,0,6,4,0,0,0,0,0,0,0,0,0,0],"split_type":[0,0,0,0,0,0,0,0,0,0,0,0,0,0,0,0,0,0,0,0,0,0,0,0,0,0,0,0,0,0,0,0,0,0,0,0,0,0,0,0,0,0,0],"sum_hessian":[7.438816E1,4.0920315E1,3.3467846E1,2.1792477E1,1.9127836E1,8.708111E0,2.4759735E1,3.3013163E0,1.8491161E1,1.6779236E1,2.3486013E0,1.4233098E0,7.2848005E0,1.3676907E1,1.1082829E1,2.1557307E0,1.1455854E0,2.0642025E0,1.4715033E1,1.7144446E0,5.570356E0,5.5990915E0,8.077814E0,8.505816E0,2.5770123E0,1.6401054E0,1.3074927E1,1.3453671E0,4.2537246E0,5.75599E0,2.3218248E0,3.6612234E0,4.8445935E0,1.3126993E0,1.264313E0,3.5773997E0,9.497528E0,2.787615E0,1.4661098E0,1.8623343E0,1.7988893E0,1.2841054E0,3.560488E0],"tree_param":{"num_deleted":"0","num_feature":"9","num_nodes":"43","size_leaf_vector":"1"}},{"base_weights":[-2.9519767E-1,-3.604236E-1,2.4824707E-1,1.0182628E-1,-3.8116992E-1,-1.3472973E-1,5.60451E-1,-4.0959296E-1,5.048744E-2,-8.187243E-4,2.1406044E-1,-4.307062E-1,3.294424E-2,1.3877088E-1,-1.2619121E-1,-3.6254913E-1,-5.5649775E-1,-1.5295203E-1,-6.9285795E-2,-1.7964911E-1,-8.1368507E-4],"categories":[],"categories_nodes":[],"categories_segments":[],"categories_sizes":[],"default_left":[0,0,0,0,0,0,0,0,0,0,0,0,0,0,0,0,0,0,0,0,0],"id":8,"left_children":[1,3,5,-1,7,-1,9,11,13,-1,-1,15,-1,-1,-1,17,19,-1,-1,-1,-1],"loss_changes":[2.6855931E0,1.084732E0,2.0893476E0,0E0,8.105097E-1,0E0,5.429584E-1,7.1086025E-1,1.1395248E0,0E0,0E0,2.9849625E-1,0E0,0E0,0E0,6.7139006E-1,4.3524885E-1,0E0,0E0,0E0,0E0],"parents":[2147483647,0,0,1,1,2,2,4,4,6,6,7,7,8,8,11,11,15,15,16,16],"right_children":[2,4,6,-1,8,-1,10,12,14,-1,-1,16,-1,-1,-1,18,20,-1,-1,-1,-1],"split_conditions":[2.2E1,5E0,0E0,1.0182628E-1,1.75E2,-1.3472973E-1,2.263E1,2.751E1,1E0,-8.187243E-4,2.1406044E-1,1.7E1,3.294424E-2,1.3877088E-1,-1.2619121E-1,5.27E2,6.01E2,-1.5295203E-1,-6.9285795E-2,-1.7964911E-1,-8.1368507E-4],"split_indices":[6,4,2,0,4,0,8,8,1,0,0,6,0,0,0,7,7,0,0,0,0],"split_type":[0,0,0,0,0,0,0,0,0,0,0,0,0,0,0,0,0,0,0,0,0],"sum_hessian":[7.2240105E1,6.479945E1,7.440652E0,1.4233797E0,6.3376072E1,2.1654255E0,5.2752266E0,5.9508755E1,3.8673153E0,1.3373654E0,3.9378612E0,5.734839E1,2.1603687E0,2.07261E0,1.7947054E0,3.9713005E1,1.7635384E1,1.7382814E1,2.2330189E1,1.6307463E1,1.3279202E0],"tree_param":{"num_deleted":"0","num_feature":"9","num_nodes":"21","size_leaf_vector":"1"}},{"base_weights":[3.47994E-1,5.4655427E-1,2.1529956E-1,6.089113E-1,3.404205E-1,-8.2729936E-2,4.02738E-1,2.2290792E-2,6.379763E-1,4.4023326E-1,-4.8712824E-2,4.6647817E-1,-2.115417E-1,4.3502355E-1,-4.5075566E-2,6.5937483E-1,5.059222E-2,5.6156176E-1,-4.0864877E-2,4.839368E-2,1.6936626E-1,2.3989637E-1,-2.9790744E-1,4.8112553E-1,1.8591372E-2,4.9890287E-2,2.047731E-1,1.9849856E-1,2.2448353E-2,1.0717309E-1,2.2848938E-3,7.012059E-2,-4.444556E-1,-3.010243E-2,5.14445E-1,-1.246717E-1,1.1585081E-1,-8.4573194E-2,1.757112E-1,-1.6408074E-1,-8.430507E-2,8.791913E-2,1.8018723E-1],"categories":[],"categories_nodes":[],"categories_segments":[],"categories_sizes":[],"default_left":[0,0,0,0,0,0,0,0,0,0,0,0,0,0,0,0,0,0,0,0,0,0,0,0,0,0,0,0,0,0,0,0,0,0,0,0,0,0,0,0,0,0,0],"id":9,"left_children":[1,3,5,7,9,11,13,-1,15,17,-1,19,21,23,-1,25,-1,27,-1,-1,-1,29,31,33,35,-1,-1,-1,-1,-1,-1,37,39,-1,41,-1,-1,-1,-1,-1,-1,-1,-1],"loss_changes":[2.1678925E0,2.3101711E-1,3.0301592E0,3.3968163E-1,5.8274126E-1,1.6227015E0,6.5639544E-1,0E0,1.24765396E-1,6.898265E-1,0E0,4.0761292E-2,7.7864224E-1,5.964751E-1,0E0,1.3962746E-1,0E0,3.1297398E-1,0E0,0E0,0E0,9.177232E-2,8.76374E-1,6.0090923E-1,8.281012E-1,0E0,0E0,0E0,0E0,0E0,0E0,1.1319376E0,3.631234E-2,0E0,3.3868265E-1,0E0,0E0,0E0,0E0,0E0,0E0,0E0,0E0],"parents":[2147483647,0,0,1,1,2,2,3,3,4,4,5,5,6,6,8,8,9,9,11,11,12,12,13,13,15,15,17,17,21,21,22,22,23,23,24,24,31,31,32,32,34,34],"right_children":[2,4,6,8,10,12,14,-1,16,18,-1,20,22,24,-1,26,-1,28,-1,-1,-1,30,32,34,36,-1,-1,-1,-1,-1,-1,38,40,-1,42,-1,-1,-1,-1,-1,-1,-1,-1],"split_conditions":[1.6E1,6.7E1,1.7E1,2.207E1,1.18E2,1E0,2.542E1,2.2290792E-2,5.8E2,5.44E2,-4.8712824E-2,1E0,6.4E1,2.4E1,-4.5075566E-2,3.4E1,5.059222E-2,9.8E1,-4.0864877E-2,4.839368E-2,1.6936626E-1,-7.5E-1,2.243E1,7E0,5.76E2,4.9890287E-2,2.047731E-1,1.9849856E-1,2.2448353E-2,1.0717309E-1,2.2848938E-3,9.4E1,1E0,-3.010243E-2,1E0,-1.246717E-1,1.1585081E-1,-8.4573194E-2,1.757112E-1,-1.6408074E-1,-8.430507E-2,8.791913E-2,1.8018723E-1],"split_indices":[6,0,6,8,4,5,8,0,7,7,0,1,4,6,0,0,0,4,0,0,0,2,8,4,7,0,0,0,0,0,0,4,1,0,1,0,0,0,0,0,0,0,0],"split_type":[0,0,0,0,0,0,0,0,0,0,0,0,0,0,0,0,0,0,0,0,0,0,0,0,0,0,0,0,0,0,0,0,0,0,0,0,0,0,0,0,0,0,0],"sum_hessian":[8.5745865E1,3.309882E1,5.2647045E1,2.3911459E1,9.187362E0,2.0542631E1,3.2104416E1,1.4163427E0,2.2495115E1,7.769441E0,1.4179208E0,3.4047177E0,1.7137915E1,3.0534996E1,1.5694188E0,2.1126957E1,1.3681582E0,6.439839E0,1.329602E0,1.471348E0,1.9333696E0,2.4666953E0,1.4671219E1,2.7351625E1,3.1833696E0,1.3165307E0,1.9810427E1,5.0432663E0,1.3965726E0,1.2813661E0,1.1853293E0,4.3267984E0,1.034442E1,1.3733552E0,2.5978271E1,1.3996308E0,1.7837389E0,2.8405447E0,1.4862536E0,4.9157157E0,5.4287043E0,8.512234E0,1.7466036E1],"tree_param":{"num_deleted":"0","num_feature":"9","num_nodes":"43","size_leaf_vector":"1"}},{"base_weights":[-1.945963E-1,-4.2253548E-1,6.909673E-2,-5.349855E-1,-2.788118E-1,-1.898822E-2,5.509067E-1,-2.537877E-1,-1.715157E-1,-3.719076E-1,7.3947825E-2,-9.652778E-2,2.059007E-1,2.2324058E-1,-1.0172842E-2,-1.2636428E-1,3.051938E-2,4.24728E-2,-4.5583737E-1,-2.2851048E-1,1.2416961E-1,-1.8228887E-2,-5.010373E-1,-5.3683215E-1,1.5017271E-1,3.8202962E-1,-3.43808E-1,-7.6671295E-2,-1.677325E-1,6.8667997E-3,-1.8237841E-1,-6.964764E-2,1.544093E-1,2.5983816E-1,-8.557238E-3,-1.3909197E-1,1.1931395E-3],"categories":[],"categories_nodes":[],"categories_segments":[],"categories_sizes":[],"default_left":[0,0,0,0,0,0,0,0,0,0,0,0,0,0,0,0,0,0,0,0,0,0,0,0,0,0,0,0,0,0,0,0,0,0,0,0,0],"id":10,"left_children":[1,3,5,7,9,11,13,15,-1,17,-1,19,-1,-1,-1,-1,-1,-1,21,23,25,-1,27,29,31,33,35,-1,-1,-1,-1,-1,-1,-1,-1,-1,-1],"loss_changes":[4.163181E0,4.493189E-1,1.4002776E0,5.826187E-2,9.887284E-1,1.6332829E0,6.009742E-1,2.852831E-1,0E0,7.532387E-1,0E0,8.0585027E-1,0E0,0E0,0E0,0E0,0E0,0E0,2.1906495E-1,2.0718799E0,1.414895E0,0E0,3.386283E-2,3.9670753E-1,1.2951394E0,1.4818357E0,1.8126154E-1,0E0,0E0,0E0,0E0,0E0,0E0,0E0,0E0,0E0,0E0],"parents":[2147483647,0,0,1,1,2,2,3,3,4,4,5,5,6,6,7,7,9,9,11,11,18,18,19,19,20,20,22,22,23,23,24,24,25,25,26,26],"right_children":[2,4,6,8,10,12,14,16,-1,18,-1,20,-1,-1,-1,-1,-1,-1,22,24,26,-1,28,30,32,34,36,-1,-1,-1,-1,-1,-1,-1,-1,-1,-1],"split_conditions":[6.5E1,5.5E1,2.443E1,4.4E1,1.6E2,8.7E1,5.65E2,-7.5E-1,-1.715157E-1,5.6E1,7.3947825E-2,2E0,2.059007E-1,2.2324058E-1,-1.0172842E-2,-1.2636428E-1,3.051938E-2,4.24728E-2,-1.25E0,2.3385E1,2.289E1,-1.8228887E-2,4.93E2,-1.75E0,5.36E2,3E0,9E1,-7.6671295E-2,-1.677325E-1,6.8667997E-3,-1.8237841E-1,-6.964764E-2,1.544093E-1,2.5983816E-1,-8.557238E-3,-1.3909197E-1,1.1931395E-3],"split_indices":[0,0,8,4,4,0,7,2,0,0,0,2,0,0,0,0,0,0,3,8,8,0,7,3,7,2,4,0,0,0,0,0,0,0,0,0,0],"split_type":[0,0,0,0,0,0,0,0,0,0,0,0,0,0,0,0,0,0,0,0,0,0,0,0,0,0,0,0,0,0,0,0,0,0,0,0,0],"sum_hessian":[6.777827E1,3.603062E1,3.1747644E1,1.8687286E1,1.7343334E1,2.7652737E1,4.094909E0,3.0728993E0,1.56143875E1,1.4980473E1,2.3628612E0,2.5691494E1,1.9612423E0,2.873164E0,1.221745E0,1.9634526E0,1.1094466E0,2.0080924E0,1.2972381E1,1.6054869E1,9.636625E0,1.572459E0,1.1399921E1,8.619386E0,7.435483E0,6.331544E0,3.3050811E0,3.2142587E0,8.185662E0,1.0478616E0,7.571524E0,3.806334E0,3.6291487E0,2.3963141E0,3.93523E0,2.2103627E0,1.0947185E0],"tree_param":{"num_deleted":"0","num_feature":"9","num_nodes":"37","size_leaf_vector":"1"}},{"base_weights":[-2.53829E-1,-3.117383E-1,2.1042493E-1,9.18267E-2,-3.324278E-1,-1.22868575E-1,4.733751E-1,-1.8144211E-1,-4.228348E-1,-5.189573E-3,1.8577085E-1,-2.591221E-1,1.22282736E-1,4.191988E-2,-4.43791E-1,-3.1854984E-1,1.0531866E-1,-4.598838E-1,-1.3886619E-1,-1.5835871E-3,-1.1260668E-1,-1.03075705E-1,-1.6299039E-1,4.5268677E-2,-1.05676115E-1],"categories":[],"categories_nodes":[],"categories_segments":[],"categories_sizes":[],"default_left":[0,0,0,0,0,0,0,0,0,0,0,0,0,0,0,0,0,0,0,0,0,0,0,0,0],"id":11,"left_children":[1,3,5,-1,7,-1,9,11,13,-1,-1,15,-1,-1,17,19,-1,21,23,-1,-1,-1,-1,-1,-1],"loss_changes":[1.8453131E0,8.592415E-1,1.4880685E0,0E0,7.125182E-1,0E0,4.4286907E-1,1.1766264E0,4.7950268E-1,0E0,0E0,8.8386333E-1,0E0,0E0,1.04846E-1,3.5259986E-1,0E0,1.2594843E-1,2.4829961E-1,0E0,0E0,0E0,0E0,0E0,0E0],"parents":[2147483647,0,0,1,1,2,2,4,4,6,6,7,7,8,8,11,11,14,14,15,15,17,17,18,18],"right_children":[2,4,6,-1,8,-1,10,12,14,-1,-1,16,-1,-1,18,20,-1,22,24,-1,-1,-1,-1,-1,-1],"split_conditions":[2.2E1,5E0,0E0,9.18267E-2,1E0,-1.22868575E-1,2.263E1,1.75E2,-3E0,-5.189573E-3,1.8577085E-1,2.751E1,1.22282736E-1,4.191988E-2,8E1,2.265E1,1.0531866E-1,5.31E2,8.7E1,-1.5835871E-3,-1.1260668E-1,-1.03075705E-1,-1.6299039E-1,4.5268677E-2,-1.05676115E-1],"split_indices":[6,4,2,0,1,0,8,4,3,0,0,8,0,0,0,8,0,7,0,0,0,0,0,0,0],"split_type":[0,0,0,0,0,0,0,0,0,0,0,0,0,0,0,0,0,0,0,0,0,0,0,0,0],"sum_hessian":[6.519828E1,5.82597E1,6.938579E0,1.4407835E0,5.681892E1,1.9003495E0,5.0382295E0,2.2406137E1,3.441278E1,1.3564758E0,3.6817536E0,2.0290472E1,2.115664E0,1.0323216E0,3.3380463E1,1.892523E1,1.3652419E0,3.122437E1,2.1560926E0,3.0727305E0,1.58525E1,1.517989E1,1.6044477E1,1.0386088E0,1.117484E0],"tree_param":{"num_deleted":"0","num_feature":"9","num_nodes":"25","size_leaf_vector":"1"}},{"base_weights":[2.8698453E-1,4.692939E-1,1.6764203E-1,2.4799637E-1,5.267469E-1,-9.171893E-2,3.3537206E-1,1.641322E-1,-5.4901972E-2,6.217232E-1,2.8985912E-1,4.0939513E-1,-2.0833471E-1,3.9824343E-1,8.314733E-2,6.082881E-2,-1.003547E-1,2.9184595E-1,1.9890907E-1,4.9774098E-1,-1.4254029E-1,4.132144E-2,1.4958586E-1,1.965064E-1,-2.8954685E-1,4.34567E-1,-3.7822377E-2,1.6159534E-1,-1.1674841E-1,1.3957565E-2,1.23798124E-1,3.0349879E-2,1.7511953E-1,1.23112515E-1,-1.8254156E-1,-9.918467E-2,1.6415247E-1,3.878682E-2,-4.2252517E-1,5.420294E-1,2.4347675E-1,9.776941E-2,-1.4502905E-1,-8.0862895E-2,1.5004203E-1,-1.5580589E-1,-8.162869E-2,7.398236E-2,1.9219935E-1,-4.249494E-3,1.4134897E-1],"categories":[],"categories_nodes":[],"categories_segments":[],"categories_sizes":[],"default_left":[0,0,0,0,0,0,0,0,0,0,0,0,0,0,0,0,0,0,0,0,0,0,0,0,0,0,0,0,0,0,0,0,0,0,0,0,0,0,0,0,0,0,0,0,0,0,0,0,0,0,0],"id":12,"left_children":[1,3,5,7,9,11,13,-1,15,17,19,21,23,25,27,-1,-1,29,-1,31,33,-1,-1,35,37,39,-1,-1,41,-1,-1,-1,-1,-1,-1,-1,-1,43,45,47,49,-1,-1,-1,-1,-1,-1,-1,-1,-1,-1],"loss_changes":[1.6872349E0,2.7056837E-1,2.2323804E0,7.904887E-1,3.633952E-1,1.2926583E0,4.576547E-1,0E0,4.33762E-1,2.9605865E-2,8.609083E-1,3.4034133E-2,6.2973475E-1,5.215678E-1,7.402315E-1,0E0,0E0,8.774671E-2,0E0,1.5093064E-1,1.1850429E0,0E0,0E0,8.291277E-1,6.6765094E-1,3.4333467E-1,0E0,0E0,1.1301098E0,0E0,0E0,0E0,0E0,0E0,0E0,0E0,0E0,8.767365E-1,1.4547944E-2,2.4993134E-1,6.019036E-1,0E0,0E0,0E0,0E0,0E0,0E0,0E0,0E0,0E0,0E0],"parents":[2147483647,0,0,1,1,2,2,3,3,4,4,5,5,6,6,8,8,9,9,10,10,11,11,12,12,13,13,14,14,17,17,19,19,20,20,23,23,24,24,25,25,28,28,37,37,38,38,39,39,40,40],"right_children":[2,4,6,8,10,12,14,-1,16,18,20,22,24,26,28,-1,-1,30,-1,32,34,-1,-1,36,38,40,-1,-1,42,-1,-1,-1,-1,-1,-1,-1,-1,44,46,48,50,-1,-1,-1,-1,-1,-1,-1,-1,-1,-1],"split_conditions":[1.6E1,7.9E1,1.7E1,5.3E2,1.18E2,1E0,2.2E1,1.641322E-1,-7.5E-1,-1.5E0,6E1,1E0,6.4E1,0E0,2.242E1,6.082881E-2,-1.003547E-1,1.4E1,1.9890907E-1,1.2E1,2.267E1,4.132144E-2,1.4958586E-1,-1E0,2.243E1,6.5E1,-3.7822377E-2,1.6159534E-1,-2.5E-1,1.3957565E-2,1.23798124E-1,3.0349879E-2,1.7511953E-1,1.23112515E-1,-1.8254156E-1,-9.918467E-2,1.6415247E-1,9.4E1,1E0,4.8E1,8.8E1,9.776941E-2,-1.4502905E-1,-8.0862895E-2,1.5004203E-1,-1.5580589E-1,-8.162869E-2,7.398236E-2,1.9219935E-1,-4.249494E-3,1.4134897E-1],"split_indices":[6,4,6,7,4,5,6,0,3,3,0,1,4,3,8,0,0,6,0,6,8,0,0,3,8,0,0,0,2,0,0,0,0,0,0,0,0,4,1,0,4,0,0,0,0,0,0,0,0,0,0],"split_type":[0,0,0,0,0,0,0,0,0,0,0,0,0,0,0,0,0,0,0,0,0,0,0,0,0,0,0,0,0,0,0,0,0,0,0,0,0,0,0,0,0,0,0,0,0,0,0,0,0,0,0],"sum_hessian":[8.016411E1,3.0555204E1,4.9608906E1,7.3934846E0,2.3161718E1,1.9660715E1,2.994819E1,3.3143435E0,4.0791416E0,1.53734455E1,7.7882743E0,3.2376134E0,1.6423101E1,2.3509193E1,6.4389963E0,2.2659295E0,1.8132119E0,2.608367E0,1.2765079E1,5.1575828E0,2.6306915E0,1.4293798E0,1.8082335E0,2.506847E0,1.3916255E1,2.2146137E1,1.363058E0,1.4470146E0,4.991982E0,1.3177319E0,1.290635E0,1.3068931E0,3.8506894E0,1.2575773E0,1.3731141E0,1.024305E0,1.482542E0,4.2156973E0,9.700558E0,1.29992895E1,9.146847E0,2.312106E0,2.679876E0,2.7761245E0,1.4395728E0,4.4096875E0,5.2908707E0,4.1299367E0,8.869352E0,4.731097E0,4.41575E0],"tree_param":{"num_deleted":"0","num_feature":"9","num_nodes":"51","size_leaf_vector":"1"}},{"base_weights":[-1.6585511E-1,-3.077091E-1,2.0254576E-1,-5.0447446E-1,-1.8497938E-1,3.9349383E-1,-1.06704764E-1,-2.2659619E-1,-1.6343847E-1,-4.2594102E-1,-1.2965221E-2,4.969915E-1,-3.3455376E-2,-3.0356842E-1,1.2769213E-1,-1.18518606E-1,3.275244E-2,4.8221212E-2,-1.6242121E-1,2.1510425E-1,-2.3319253E-1,1.9516858E-1,6.051005E-1,1.0705024E-2,-1.3112044E-1,-1.04200415E-1,1.2067878E-1,-9.845219E-2,1.0645027E-1,-2.1555348E-1,3.8332438E-1,-1.3896735E-1,-3.963544E-2,-5.1936224E-2,1.5598026E-1,2.7347666E-1,2.1431872E-1,-1.2665582E-1,3.2621033E-2,-6.8367267E-4,1.6421759E-1,6.487112E-2,-8.772351E-2,1.5531715E-2,1.0587009E-1],"categories":[],"categories_nodes":[],"categories_segments":[],"categories_sizes":[],"default_left":[0,0,0,0,0,0,0,0,0,0,0,0,0,0,0,0,0,0,0,0,0,0,0,0,0,0,0,0,0,0,0,0,0,0,0,0,0,0,0,0,0,0,0,0,0],"id":13,"left_children":[1,3,5,7,9,11,13,15,-1,17,19,21,-1,23,25,-1,-1,27,-1,29,31,33,35,-1,-1,-1,-1,-1,-1,37,39,-1,41,-1,-1,43,-1,-1,-1,-1,-1,-1,-1,-1,-1],"loss_changes":[3.3312402E0,1.0068884E0,1.1044827E0,6.6147804E-2,1.2229035E0,6.4800847E-1,3.9201427E-1,2.6127055E-1,0E0,7.002318E-1,9.705221E-1,1.9490337E-1,0E0,2.1744934E-1,6.8731844E-1,0E0,0E0,5.0069004E-1,0E0,7.7244365E-1,4.1807145E-1,5.691439E-1,4.3360233E-2,0E0,0E0,0E0,0E0,0E0,0E0,2.6802155E-1,4.5721078E-1,0E0,4.782489E-1,0E0,0E0,3.9008915E-2,0E0,0E0,0E0,0E0,0E0,0E0,0E0,0E0,0E0],"parents":[2147483647,0,0,1,1,2,2,3,3,4,4,5,5,6,6,7,7,9,9,10,10,11,11,13,13,14,14,17,17,19,19,20,20,21,21,22,22,29,29,30,30,32,32,35,35],"right_children":[2,4,6,8,10,12,14,16,-1,18,20,22,-1,24,26,-1,-1,28,-1,30,32,34,36,-1,-1,-1,-1,-1,-1,38,40,-1,42,-1,-1,44,-1,-1,-1,-1,-1,-1,-1,-1,-1],"split_conditions":[7E1,5.5E1,-1E0,4.4E1,1.6E1,3E0,2.298E1,4.4E1,-1.6343847E-1,1.1E1,5.41E2,1E0,-3.3455376E-2,8.6E1,9.1E1,-1.18518606E-1,3.275244E-2,9.7E1,-1.6242121E-1,5.09E2,6.5E1,5.36E2,5E-1,1.0705024E-2,-1.3112044E-1,-1.04200415E-1,1.2067878E-1,-9.845219E-2,1.0645027E-1,6.2E1,5E-1,-1.3896735E-1,1E0,-5.1936224E-2,1.5598026E-1,2.371E1,2.1431872E-1,-1.2665582E-1,3.2621033E-2,-6.8367267E-4,1.6421759E-1,6.487112E-2,-8.772351E-2,1.5531715E-2,1.0587009E-1],"split_indices":[0,0,3,4,6,2,8,0,0,6,7,1,0,4,4,0,0,4,0,7,0,7,2,0,0,0,0,0,0,0,2,0,1,0,0,8,0,0,0,0,0,0,0,0,0],"split_type":[0,0,0,0,0,0,0,0,0,0,0,0,0,0,0,0,0,0,0,0,0,0,0,0,0,0,0,0,0,0,0,0,0,0,0,0,0,0,0,0,0,0,0,0,0],"sum_hessian":[6.1552032E1,4.4559135E1,1.6992899E1,1.5921954E1,2.863718E1,1.0337534E1,6.655366E0,2.856381E0,1.3065573E1,1.131319E1,1.7323992E1,8.592466E0,1.7450676E0,3.4569025E0,3.1984637E0,1.7844768E0,1.0719042E0,2.3294392E0,8.983751E0,8.521897E0,8.8020935E0,3.0058668E0,5.5865993E0,1.1830987E0,2.2738037E0,1.0744962E0,2.1239674E0,1.0141538E0,1.3152853E0,2.314698E0,6.207199E0,3.385452E0,5.4166417E0,1.6273558E0,1.378511E0,2.2529309E0,3.3336682E0,1.2294408E0,1.0852573E0,2.1470823E0,4.060117E0,2.7636707E0,2.652971E0,1.0299013E0,1.2230296E0],"tree_param":{"num_deleted":"0","num_feature":"9","num_nodes":"45","size_leaf_vector":"1"}},{"base_weights":[-2.1571845E-1,-2.6831478E-1,1.9613399E-1,8.450109E-2,-2.890971E-1,-1.1333056E-1,4.3230736E-1,-2.2027048E-1,-4.8773196E-1,1.8221274E-1,7.6036365E-3,-3.9139003E-1,-1.0072213E-1,-1.645951E-1,-3.529887E-2,-1.6285996E-1,-1.7478651E-1,1.8304414E-1,-1.8308128E-1,-1.4519112E-1,8.578166E-2,-1.0443947E-1,5.7606686E-2],"categories":[],"categories_nodes":[],"categories_segments":[],"categories_sizes":[],"default_left":[0,0,0,0,0,0,0,0,0,0,0,0,0,0,0,0,0,0,0,0,0,0,0],"id":14,"left_children":[1,3,5,-1,7,-1,9,11,13,-1,-1,15,17,-1,-1,-1,19,-1,21,-1,-1,-1,-1],"loss_changes":[1.3498471E0,6.932256E-1,1.1608014E0,0E0,6.044359E-1,0E0,3.892914E-1,7.8897285E-1,2.1895266E-1,0E0,0E0,4.4019556E-1,1.5862598E0,0E0,0E0,0E0,1.3045074E0,0E0,1.5118607E0,0E0,0E0,0E0,0E0],"parents":[2147483647,0,0,1,1,2,2,4,4,6,6,7,7,8,8,11,11,12,12,16,16,18,18],"right_children":[2,4,6,-1,8,-1,10,12,14,-1,-1,16,18,-1,-1,-1,20,-1,22,-1,-1,-1,-1],"split_conditions":[2.2E1,5E0,0E0,8.450109E-2,7E1,-1.1333056E-1,5.8E1,5.27E2,8E1,1.8221274E-1,7.6036365E-3,1E0,5.31E2,-1.645951E-1,-3.529887E-2,-1.6285996E-1,2.33E1,1.8304414E-1,2.421E1,-1.4519112E-1,8.578166E-2,-1.0443947E-1,5.7606686E-2],"split_indices":[6,4,2,0,0,0,0,7,0,0,0,2,7,0,0,0,8,0,8,0,0,0,0],"split_type":[0,0,0,0,0,0,0,0,0,0,0,0,0,0,0,0,0,0,0,0,0,0,0],"sum_hessian":[5.8884865E1,5.252552E1,6.359345E0,1.4554353E0,5.1070084E1,1.6792413E0,4.6801033E0,3.9494305E1,1.1575783E1,2.9280431E0,1.7520603E0,1.5308321E1,2.4185982E1,9.525237E0,2.050545E0,8.122074E0,7.186247E0,1.8458104E0,2.2340172E1,4.2701674E0,2.9160798E0,1.55638075E1,6.7763643E0],"tree_param":{"num_deleted":"0","num_feature":"9","num_nodes":"23","size_leaf_vector":"1"}},{"base_weights":[2.4664113E-1,4.1179565E-1,1.4093965E-1,2.0596558E-1,4.6853104E-1,-9.0993695E-2,2.944465E-1,1.4930932E-1,-6.689367E-2,5.64228E-1,2.4031034E-1,3.6469242E-1,-1.978217E-1,3.2165197E-1,-4.2191718E-2,4.9920708E-2,-9.320692E-2,2.5467563E-1,1.8158165E-1,1.5757507E-1,-7.5010814E-2,1.3592702E-1,3.381702E-2,1.8230247E-1,-2.751402E-1,3.4862414E-1,-3.402815E-2,7.760421E-3,1.1180491E-1,1.2644526E-1,-1.3481186E-1,9.278244E-2,-9.714207E-3,1.4938542E-2,-3.9324683E-1,3.869261E-1,1.49358595E-2,-7.753454E-2,1.3141023E-1,-1.4826338E-1,-7.354382E-2,1.5013178E-1,7.309342E-2,-1.05986185E-1,9.187412E-2],"categories":[],"categories_nodes":[],"categories_segments":[],"categories_sizes":[],"default_left":[0,0,0,0,0,0,0,0,0,0,0,0,0,0,0,0,0,0,0,0,0,0,0,0,0,0,0,0,0,0,0,0,0,0,0,0,0,0,0,0,0,0,0,0,0],"id":15,"left_children":[1,3,5,7,9,11,13,-1,15,17,19,21,23,25,-1,-1,-1,27,-1,-1,29,-1,-1,31,33,35,-1,-1,-1,-1,-1,-1,-1,37,39,41,43,-1,-1,-1,-1,-1,-1,-1,-1],"loss_changes":[1.2433887E0,2.3716736E-1,1.6993415E0,6.668017E-1,3.3646822E-1,1.0201037E0,3.826306E-1,0E0,3.357285E-1,2.9910564E-2,7.6963896E-1,3.9130867E-2,5.328525E-1,3.5792375E-1,0E0,0E0,0E0,8.276667E-2,0E0,0E0,1.0691441E0,0E0,0E0,1.0207877E-1,4.870931E-1,3.238728E-1,0E0,0E0,0E0,0E0,0E0,0E0,0E0,6.947394E-1,2.865088E-2,2.537222E-1,5.0464094E-1,0E0,0E0,0E0,0E0,0E0,0E0,0E0,0E0],"parents":[2147483647,0,0,1,1,2,2,3,3,4,4,5,5,6,6,8,8,9,9,10,10,11,11,12,12,13,13,17,17,20,20,23,23,24,24,25,25,33,33,34,34,35,35,36,36],"right_children":[2,4,6,8,10,12,14,-1,16,18,20,22,24,26,-1,-1,-1,28,-1,-1,30,-1,-1,32,34,36,-1,-1,-1,-1,-1,-1,-1,38,40,42,44,-1,-1,-1,-1,-1,-1,-1,-1],"split_conditions":[1.6E1,7.9E1,1.7E1,5.3E2,1.18E2,1E0,2.542E1,1.4930932E-1,-7.5E-1,-1.5E0,5.7E1,6.3E1,6.4E1,0E0,-4.2191718E-2,4.9920708E-2,-9.320692E-2,4.99E2,1.8158165E-1,1.5757507E-1,2.267E1,1.3592702E-1,3.381702E-2,5.47E2,2.243E1,2.4E1,-3.402815E-2,7.760421E-3,1.1180491E-1,1.2644526E-1,-1.3481186E-1,9.278244E-2,-9.714207E-3,9.4E1,1E0,5.57E2,5.76E2,-7.753454E-2,1.3141023E-1,-1.4826338E-1,-7.354382E-2,1.5013178E-1,7.309342E-2,-1.05986185E-1,9.187412E-2],"split_indices":[6,4,6,7,4,5,8,0,3,3,0,0,4,3,0,0,0,7,0,0,8,0,0,7,8,6,0,0,0,0,0,0,0,4,1,7,7,0,0,0,0,0,0,0,0],"split_type":[0,0,0,0,0,0,0,0,0,0,0,0,0,0,0,0,0,0,0,0,0,0,0,0,0,0,0,0,0,0,0,0,0,0,0,0,0,0,0,0,0,0,0,0,0],"sum_hessian":[7.355008E1,2.75728E1,4.5977276E1,6.9584737E0,2.0614326E1,1.8473269E1,2.750401E1,2.9647021E0,3.9937713E0,1.3486787E1,7.1275396E0,3.0498757E0,1.5423392E1,2.613079E1,1.3732185E0,2.2030535E0,1.7907178E0,2.4223657E0,1.1064422E1,3.394415E0,3.7331247E0,1.6668881E0,1.3829877E0,2.3774111E0,1.304598E1,2.4792522E1,1.3382688E0,1.2390829E0,1.1832826E0,1.5506771E0,2.1824477E0,1.2170111E0,1.1604E0,4.027545E0,9.0184355E0,2.2096645E1,2.695878E0,2.6830297E0,1.3445153E0,3.9729636E0,5.045472E0,1.0938238E1,1.1158406E1,1.0967789E0,1.599099E0],"tree_param":{"num_deleted":"0","num_feature":"9","num_nodes":"45","size_leaf_vector":"1"}},{"base_weights":[-1.4672995E-1,-2.808266E-1,1.8301989E-1,-4.769597E-1,-1.66438E-1,3.552037E-1,-1.0499272E-1,-2.0312318E-1,-1.5630667E-1,-4.5411813E-1,-4.5430966E-2,4.4416904E-1,-2.7422003E-2,-2.795545E-1,1.0620559E-1,-1.1124298E-1,3.3646718E-2,4.594534E-5,-1.560351E-1,-2.9145563E-1,7.902514E-2,1.5361777E-1,5.5127406E-1,-1.2361372E-1,9.543917E-3,-3.813938E-2,8.5811794E-2,6.9023296E-2,-1.4394557E-1,1.8208802E-1,-1.21119745E-1,-5.426382E-2,1.398751E-1,7.7531554E-2,1.9288076E-1,1.6571307E-1,1.5458184E-2],"categories":[],"categories_nodes":[],"categories_segments":[],"categories_sizes":[],"default_left":[0,0,0,0,0,0,0,0,0,0,0,0,0,0,0,0,0,0,0,0,0,0,0,0,0,0,0,0,0,0,0,0,0,0,0,0,0],"id":16,"left_children":[1,3,5,7,9,11,13,15,-1,17,19,21,-1,23,25,-1,-1,-1,-1,27,29,31,33,-1,-1,-1,-1,-1,-1,35,-1,-1,-1,-1,-1,-1,-1],"loss_changes":[2.558751E0,8.338611E-1,8.802619E-1,6.862879E-2,9.278599E-1,4.723581E-1,2.9262096E-1,2.3418906E-1,0E0,2.3861778E-1,6.4431E-1,2.026143E-1,0E0,1.855438E-1,2.0219524E-1,0E0,0E0,0E0,0E0,8.009551E-1,7.830582E-1,4.8934248E-1,4.534483E-3,0E0,0E0,0E0,0E0,0E0,0E0,5.730089E-1,0E0,0E0,0E0,0E0,0E0,0E0,0E0],"parents":[2147483647,0,0,1,1,2,2,3,3,4,4,5,5,6,6,7,7,9,9,10,10,11,11,13,13,14,14,19,19,20,20,21,21,22,22,29,29],"right_children":[2,4,6,8,10,12,14,16,-1,18,20,22,-1,24,26,-1,-1,-1,-1,28,30,32,34,-1,-1,-1,-1,-1,-1,36,-1,-1,-1,-1,-1,-1,-1],"split_conditions":[7E1,5.5E1,-1E0,4.4E1,2.279E1,3E0,2.298E1,5.47E2,-1.5630667E-1,2.185E1,1.6E1,1E0,-2.7422003E-2,5.93E2,9.3E1,-1.1124298E-1,3.3646718E-2,4.594534E-5,-1.560351E-1,1.1E1,2.1E1,5.36E2,5E-1,-1.2361372E-1,9.543917E-3,-3.813938E-2,8.5811794E-2,6.9023296E-2,-1.4394557E-1,2.322E1,-1.21119745E-1,-5.426382E-2,1.398751E-1,7.7531554E-2,1.9288076E-1,1.6571307E-1,1.5458184E-2],"split_indices":[0,0,3,4,8,2,8,7,0,8,6,1,0,7,4,0,0,0,0,6,6,7,2,0,0,0,0,0,0,8,0,0,0,0,0,0,0],"split_type":[0,0,0,0,0,0,0,0,0,0,0,0,0,0,0,0,0,0,0,0,0,0,0,0,0,0,0,0,0,0,0,0,0,0,0,0,0],"sum_hessian":[5.5703934E1,3.9705563E1,1.5998371E1,1.3458939E1,2.6246622E1,9.866529E0,6.1318417E0,2.6430407E0,1.0815898E1,6.9562125E0,1.9290411E1,8.232142E0,1.6343867E0,3.1798997E0,2.9519417E0,1.6103919E0,1.0326488E0,1.0089908E0,5.9472218E0,6.029489E0,1.32609215E1,2.8729002E0,5.3592424E0,2.0038793E0,1.1760206E0,1.4123974E0,1.5395443E0,1.5410949E0,4.4883943E0,1.1441184E1,1.8197368E0,1.5915129E0,1.2813873E0,2.1881502E0,3.1710923E0,2.14027E0,9.300915E0],"tree_param":{"num_deleted":"0","num_feature":"9","num_nodes":"37","size_leaf_vector":"1"}},{"base_weights":[-1.8571068E-1,-2.3217866E-1,1.7303802E-1,-1.5011384E-1,-1.8308811E-1,-1.043919E-1,3.8233495E-1,-1.2085382E-1,-4.0965632E-1,1.630504E-1,6.479989E-3,-1.3567065E-1,-7.111807E-2,2.9845433E-2,-1.507216E-1,-1.4076681E-1,-1.513094E-2,1.5485822E-1,-2.4630686E-2],"categories":[],"categories_nodes":[],"categories_segments":[],"categories_sizes":[],"default_left":[0,0,0,0,0,0,0,0,0,0,0,0,0,0,0,0,0,0,0],"id":17,"left_children":[1,3,5,-1,7,-1,9,11,13,-1,-1,-1,15,-1,-1,-1,17,-1,-1],"loss_changes":[9.4383574E-1,5.458703E-1,8.733785E-1,0E0,5.49816E-1,0E0,2.975554E-1,5.407933E-1,4.6274388E-1,0E0,0E0,0E0,6.930671E-1,0E0,0E0,0E0,1.0591339E0,0E0,0E0],"parents":[2147483647,0,0,1,1,2,2,4,4,6,6,7,7,8,8,12,12,16,16],"right_children":[2,4,6,-1,8,-1,10,12,14,-1,-1,-1,16,-1,-1,-1,18,-1,-1],"split_conditions":[2.2E1,4.93E2,0E0,-1.5011384E-1,2E0,-1.043919E-1,1.25E0,1.3E1,5.4E1,1.630504E-1,6.479989E-3,-1.3567065E-1,-3.75E0,2.9845433E-2,-1.507216E-1,-1.4076681E-1,-2E0,1.5485822E-1,-2.4630686E-2],"split_indices":[6,7,2,0,2,0,2,6,0,0,0,0,2,0,0,0,2,0,0],"split_type":[0,0,0,0,0,0,0,0,0,0,0,0,0,0,0,0,0,0,0],"sum_hessian":[5.320771E1,4.7418503E1,5.7892094E0,5.9141574E0,4.1504345E1,1.4692264E0,4.319983E0,3.376351E1,7.740832E0,2.6357522E0,1.684231E0,3.3500276E0,3.0413485E1,1.1816416E0,6.55919E0,2.8397963E0,2.7573689E1,2.3356721E0,2.5238016E1],"tree_param":{"num_deleted":"0","num_feature":"9","num_nodes":"19","size_leaf_vector":"1"}},{"base_weights":[2.1059786E-1,3.6206946E-1,1.1808383E-1,1.645879E-1,4.2054734E-1,-8.417807E-2,2.5319138E-1,3.4480026E-1,-6.522743E-2,5.187129E-1,2.0021473E-1,1.4174616E-1,-1.5728167E-1,3.6819038E-1,1.3320282E-1,1.4578517E-1,6.6355006E-3,2.291833E-1,1.6792518E-1,1.4483695E-1,-9.37974E-2,-3.2611123E-1,1.2590615E-1,3.2611806E-2,5.1767147E-1,-3.4921598E-1,2.8614408E-1,3.6395246E-3,1.0319675E-1,1.1364923E-1,-1.2649387E-1,-1.6851483E-1,-1.2402993E-1,1.546742E-1,-2.4497524E-1,3.1101313E-1,-1.3036671E-1,1.7191176E-1,4.4146456E-2,-1.5177198E-1,6.4153005E-3,-2.2500727E-2,3.853932E-1,8.6618036E-2,-1.4811148E-1,3.186483E-2,-1.2353572E-1,-1.8409035E-3,1.3020916E-1,8.958343E-2,-1.1220849E-1,1.5265086E-1,3.3016574E-2],"categories":[],"categories_nodes":[],"categories_segments":[],"categories_sizes":[],"default_left":[0,0,0,0,0,0,0,0,0,0,0,0,0,0,0,0,0,0,0,0,0,0,0,0,0,0,0,0,0,0,0,0,0,0,0,0,0,0,0,0,0,0,0,0,0,0,0,0,0,0,0,0,0],"id":18,"left_children":[1,3,5,7,9,11,13,15,-1,17,19,-1,21,23,25,-1,-1,27,-1,-1,29,31,33,35,37,39,41,-1,-1,-1,-1,-1,43,-1,45,47,-1,-1,-1,-1,-1,49,51,-1,-1,-1,-1,-1,-1,-1,-1,-1,-1],"loss_changes":[9.2000055E-1,2.260356E-1,1.2274337E0,5.9020203E-1,3.0888534E-1,8.241437E-1,3.195219E-1,2.3848027E-1,0E0,2.109623E-2,6.6923136E-1,0E0,8.55622E-1,6.388416E-1,1.17998E0,0E0,0E0,7.691479E-2,0E0,0E0,8.5978574E-1,4.5178795E-1,1.150241E0,7.978897E-1,9.982109E-2,2.4159202E-1,3.6598456E-1,0E0,0E0,0E0,0E0,0E0,1.2379605E0,0E0,2.9610553E-1,1.4997306E-1,0E0,0E0,0E0,0E0,0E0,5.387171E-1,2.4586523E-1,0E0,0E0,0E0,0E0,0E0,0E0,0E0,0E0,0E0,0E0],"parents":[2147483647,0,0,1,1,2,2,3,3,4,4,5,5,6,6,7,7,9,9,10,10,12,12,13,13,14,14,17,17,20,20,21,21,22,22,23,23,24,24,25,25,26,26,32,32,34,34,35,35,41,41,42,42],"right_children":[2,4,6,8,10,12,14,16,-1,18,20,-1,22,24,26,-1,-1,28,-1,-1,30,32,34,36,38,40,42,-1,-1,-1,-1,-1,44,-1,46,48,-1,-1,-1,-1,-1,50,52,-1,-1,-1,-1,-1,-1,-1,-1,-1,-1],"split_conditions":[1.6E1,7.9E1,1.7E1,6.4E1,1.18E2,4.6E1,5.57E2,5.35E2,-6.522743E-2,-1.5E0,5.7E1,1.4174616E-1,1.05E2,5.22E2,5.69E2,1.4578517E-1,6.6355006E-3,1.4E1,1.6792518E-1,1.4483695E-1,2.267E1,6.3E1,2.283E1,5.02E2,2.1E1,1E0,4.9E1,3.6395246E-3,1.0319675E-1,1.1364923E-1,-1.2649387E-1,-1.6851483E-1,7.1E1,1.546742E-1,5.22E2,2.261E1,-1.3036671E-1,1.7191176E-1,4.4146456E-2,-1.5177198E-1,6.4153005E-3,4.7E1,6.9E1,8.6618036E-2,-1.4811148E-1,3.186483E-2,-1.2353572E-1,-1.8409035E-3,1.3020916E-1,8.958343E-2,-1.1220849E-1,1.5265086E-1,3.3016574E-2],"split_indices":[6,4,6,0,4,0,7,7,0,3,0,0,4,7,7,0,0,6,0,0,8,0,8,7,6,1,0,0,0,0,0,0,0,0,7,8,0,0,0,0,0,0,0,0,0,0,0,0,0,0,0,0,0],"split_type":[0,0,0,0,0,0,0,0,0,0,0,0,0,0,0,0,0,0,0,0,0,0,0,0,0,0,0,0,0,0,0,0,0,0,0,0,0,0,0,0,0,0,0,0,0,0,0,0,0,0,0,0,0],"sum_hessian":[6.770318E1,2.4566767E1,4.313641E1,6.484144E0,1.8082623E1,1.7425955E1,2.5710455E1,4.471942E0,2.0122023E0,1.1572473E1,6.51015E0,1.3886306E0,1.6037323E1,1.2071955E1,1.36385E1,2.7590714E0,1.7128706E0,2.254091E0,9.318381E0,2.9922366E0,3.517913E0,9.952386E0,6.0849376E0,4.095624E0,7.9763303E0,2.9740849E0,1.0664415E1,1.1623075E0,1.0917834E0,1.3771311E0,2.1407819E0,3.7733803E0,6.1790056E0,2.7770357E0,3.3079019E0,2.7757287E0,1.3198954E0,6.463822E0,1.5125085E0,1.8336945E0,1.1403904E0,2.7830334E0,7.881382E0,3.022848E0,3.1561575E0,1.1822103E0,2.1256914E0,1.0412958E0,1.7344329E0,1.5331078E0,1.2499256E0,4.8561635E0,3.0252187E0],"tree_param":{"num_deleted":"0","num_feature":"9","num_nodes":"53","size_leaf_vector":"1"}},{"base_weights":[-1.2729166E-1,-2.557931E-1,1.7257015E-1,-4.5152578E-1,-1.4956124E-1,3.2848075E-1,-9.346718E-2,-1.7777538E-1,-1.5035467E-1,-4.2756277E-1,-4.039365E-2,4.0977392E-1,-2.4239043E-2,-2.516818E-1,9.4551526E-2,-1.04262955E-1,3.5369135E-2,-1.4793092E-1,-6.3016694E-3,-2.6938757E-1,6.676254E-2,1.3504471E-1,5.0873756E-1,1.3580889E-2,-1.1835227E-1,-3.6087725E-2,7.86401E-2,6.0107145E-2,-1.3691357E-1,1.5640272E-1,-1.1280065E-1,-5.184154E-2,1.2804261E-1,2.3376158E-1,1.7887333E-1,1.0226122E-1,-1.7716408E-2,8.325721E-2,2.1678787E-2],"categories":[],"categories_nodes":[],"categories_segments":[],"categories_sizes":[],"default_left":[0,0,0,0,0,0,0,0,0,0,0,0,0,0,0,0,0,0,0,0,0,0,0,0,0,0,0,0,0,0,0,0,0,0,0,0,0,0,0],"id":19,"left_children":[1,3,5,7,9,11,13,15,-1,17,19,21,-1,23,25,-1,-1,-1,-1,27,29,31,33,-1,-1,-1,-1,-1,-1,35,-1,-1,-1,37,-1,-1,-1,-1,-1],"loss_changes":[2.0386605E0,6.9426394E-1,6.995253E-1,7.937527E-2,7.4883205E-1,3.787371E-1,2.2419307E-1,2.1428204E-1,0E0,1.7651927E-1,4.898516E-1,1.714077E-1,0E0,1.8459642E-1,1.685378E-1,0E0,0E0,0E0,0E0,6.47333E-1,6.1054397E-1,4.061018E-1,8.152485E-3,0E0,0E0,0E0,0E0,0E0,0E0,5.076822E-1,0E0,0E0,0E0,2.0318031E-3,0E0,0E0,0E0,0E0,0E0],"parents":[2147483647,0,0,1,1,2,2,3,3,4,4,5,5,6,6,7,7,9,9,10,10,11,11,13,13,14,14,19,19,20,20,21,21,22,22,29,29,33,33],"right_children":[2,4,6,8,10,12,14,16,-1,18,20,22,-1,24,26,-1,-1,-1,-1,28,30,32,34,-1,-1,-1,-1,-1,-1,36,-1,-1,-1,38,-1,-1,-1,-1,-1],"split_conditions":[7E1,5.5E1,-1E0,4.4E1,2.279E1,3E0,2.298E1,-7.5E-1,-1.5035467E-1,3.75E0,1.6E1,1E0,-2.4239043E-2,7.4E1,9.3E1,-1.04262955E-1,3.5369135E-2,-1.4793092E-1,-6.3016694E-3,1.1E1,2.1E1,5.36E2,5E-1,1.3580889E-2,-1.1835227E-1,-3.6087725E-2,7.86401E-2,6.0107145E-2,-1.3691357E-1,1E0,-1.1280065E-1,-5.184154E-2,1.2804261E-1,8.1E1,1.7887333E-1,1.0226122E-1,-1.7716408E-2,8.325721E-2,2.1678787E-2],"split_indices":[0,0,3,4,8,2,8,2,0,2,6,1,0,0,4,0,0,0,0,6,6,7,2,0,0,0,0,0,0,1,0,0,0,4,0,0,0,0,0],"split_type":[0,0,0,0,0,0,0,0,0,0,0,0,0,0,0,0,0,0,0,0,0,0,0,0,0,0,0,0,0,0,0,0,0,0,0,0,0,0,0],"sum_hessian":[5.0761745E1,3.5636993E1,1.5124752E1,1.1393688E1,2.4243305E1,9.388138E0,5.7366147E0,2.4526432E0,8.941045E0,6.0133624E0,1.8229944E1,7.8314047E0,1.5567329E0,2.9313402E0,2.8052742E0,1.4466054E0,1.0060377E0,4.9952183E0,1.0181441E0,5.3286314E0,1.2901313E1,2.7001665E0,5.1312385E0,1.1738375E0,1.7575028E0,1.3529506E0,1.4523237E0,1.4968575E0,3.8317735E0,1.1267004E1,1.6343088E0,1.5122571E0,1.1879094E0,2.1250293E0,3.006209E0,5.7564383E0,5.5105658E0,1.1067103E0,1.0183189E0],"tree_param":{"num_deleted":"0","num_feature":"9","num_nodes":"39","size_leaf_vector":"1"}},{"base_weights":[-1.5864421E-1,-2.006607E-1,1.6074027E-1,-1.4277515E-1,-1.5389638E-1,-9.7301975E-2,3.5175395E-1,-9.710617E-2,-3.7687486E-1,1.5204467E-1,5.413399E-3,-1.3183388E-1,-5.3960383E-2,3.1792793E-2,-1.4320442E-1,3.5877356E-1,-1.06608056E-1,-5.116452E-3,1.6587643E-1,-4.296245E-2,1.1870419E-1],"categories":[],"categories_nodes":[],"categories_segments":[],"categories_sizes":[],"default_left":[0,0,0,0,0,0,0,0,0,0,0,0,0,0,0,0,0,0,0,0,0],"id":20,"left_children":[1,3,5,-1,7,-1,9,11,13,-1,-1,-1,15,-1,-1,17,19,-1,-1,-1,-1],"loss_changes":[6.9880044E-1,4.9751544E-1,7.005969E-1,0E0,4.6206063E-1,0E0,2.5068265E-1,4.5976588E-1,4.2154467E-1,0E0,0E0,0E0,6.946741E-1,0E0,0E0,2.7550572E-1,5.6336755E-1,0E0,0E0,0E0,0E0],"parents":[2147483647,0,0,1,1,2,2,4,4,6,6,7,7,8,8,12,12,15,15,16,16],"right_children":[2,4,6,-1,8,-1,10,12,14,-1,-1,-1,16,-1,-1,18,20,-1,-1,-1,-1],"split_conditions":[2.2E1,4.93E2,0E0,-1.4277515E-1,2E0,-9.7301975E-2,5.8E1,-3.75E0,2.201E1,1.5204467E-1,5.413399E-3,-1.3183388E-1,-2E0,3.1792793E-2,-1.4320442E-1,7.9E1,6.03E2,-5.116452E-3,1.6587643E-1,-4.296245E-2,1.1870419E-1],"split_indices":[6,7,2,0,2,0,0,2,8,0,0,0,2,0,0,4,7,0,0,0,0],"split_type":[0,0,0,0,0,0,0,0,0,0,0,0,0,0,0,0,0,0,0,0,0],"sum_hessian":[4.8670277E1,4.3340378E1,5.3298984E0,4.9612665E0,3.8379112E1,1.308631E0,4.0212674E0,3.1732645E1,6.6464663E0,2.391362E0,1.6299055E0,2.5236452E0,2.9209E1,1.1353703E0,5.511096E0,2.646559E0,2.656244E1,1.212185E0,1.4343741E0,2.5424715E1,1.1377256E0],"tree_param":{"num_deleted":"0","num_feature":"9","num_nodes":"21","size_leaf_vector":"1"}},{"base_weights":[1.8127951E-1,4.4111922E-1,1.3083708E-1,9.651581E-3,4.9689323E-1,1.605595E-1,-1.07953936E-1,1.6935785E-1,2.6463128E-3,1.7883189E-1,-1.05049245E-1,2.0539086E-1,-2.0901285E-1,6.37315E-2,2.7186513E-1,3.6045544E-2,-1.1852506E-1,6.256753E-2,-8.5926875E-2,-1.7638544E-2,1.0199901E-1],"categories":[],"categories_nodes":[],"categories_segments":[],"categories_sizes":[],"default_left":[0,0,0,0,0,0,0,0,0,0,0,0,0,0,0,0,0,0,0,0,0],"id":21,"left_children":[1,3,5,-1,7,9,-1,-1,-1,11,-1,13,15,17,19,-1,-1,-1,-1,-1,-1],"loss_changes":[7.6520586E-1,2.0720232E-1,8.453263E-1,0E0,2.7697825E-1,5.442256E-1,0E0,0E0,0E0,5.62978E-1,0E0,4.323702E-1,2.7600345E-1,8.9944124E-1,7.4533224E-1,0E0,0E0,0E0,0E0,0E0,0E0],"parents":[2147483647,0,0,1,1,2,2,4,4,5,5,9,9,11,11,12,12,13,13,14,14],"right_children":[2,4,6,-1,8,10,-1,-1,-1,12,-1,14,16,18,20,-1,-1,-1,-1,-1,-1],"split_conditions":[4.7E1,3E1,2.604E1,9.651581E-3,2.527E1,8.7E1,-1.07953936E-1,1.6935785E-1,2.6463128E-3,1.65E2,-1.05049245E-1,1E0,5.6E1,9.5E1,-1.5E0,3.6045544E-2,-1.1852506E-1,6.256753E-2,-8.5926875E-2,-1.7638544E-2,1.0199901E-1],"split_indices":[0,0,8,0,8,0,0,0,0,4,0,1,0,4,3,0,0,0,0,0,0],"split_type":[0,0,0,0,0,0,0,0,0,0,0,0,0,0,0,0,0,0,0,0,0],"sum_hessian":[6.1785072E1,8.785268E0,5.29998E1,1.2436177E0,7.5416503E0,5.0607136E1,2.3926685E0,6.4862022E0,1.0554483E0,4.948648E1,1.1206535E0,4.6755196E1,2.7312872E0,1.5558386E1,3.1196808E1,1.1143088E0,1.6169783E0,1.1292211E1,4.2661757E0,5.3532267E0,2.584358E1],"tree_param":{"num_deleted":"0","num_feature":"9","num_nodes":"21","size_leaf_vector":"1"}},{"base_weights":[-1.135513E-1,-3.1095713E-1,6.0207672E-2,-4.293341E-1,-1.861615E-1,-1.3220733E-2,4.2222106E-1,-1.585351E-1,-1.4500308E-1,-2.7772206E-1,5.2009206E-2,-7.75683E-2,1.4668211E-1,1.664919E-1,1.5795305E-2,-9.554028E-2,2.9954577E-2,5.3495493E-2,-3.679848E-1,-2.1156435E-1,1.2253867E-1,-4.0163966E-3,-4.200059E-1,-4.947564E-1,1.1417276E-1,3.4502286E-1,-9.829656E-2,-3.855525E-2,-1.4905606E-1,-3.803065E-2,-1.6334751E-1,-5.666298E-2,1.0643755E-1,1.8726785E-1,7.836011E-3],"categories":[],"categories_nodes":[],"categories_segments":[],"categories_sizes":[],"default_left":[0,0,0,0,0,0,0,0,0,0,0,0,0,0,0,0,0,0,0,0,0,0,0,0,0,0,0,0,0,0,0,0,0,0,0],"id":22,"left_children":[1,3,5,7,9,11,13,15,-1,17,-1,19,-1,-1,-1,-1,-1,-1,21,23,25,-1,27,29,31,33,-1,-1,-1,-1,-1,-1,-1,-1,-1],"loss_changes":[1.6385341E0,2.4906182E-1,6.954874E-1,7.932961E-2,4.6313062E-1,7.6647913E-1,1.869896E-1,1.66563E-1,0E0,4.9503338E-1,0E0,5.849581E-1,0E0,0E0,0E0,0E0,0E0,0E0,1.6103637E-1,1.2422178E0,1.0139909E0,0E0,1.1189628E-1,6.0251832E-2,5.621674E-1,5.630711E-1,0E0,0E0,0E0,0E0,0E0,0E0,0E0,0E0,0E0],"parents":[2147483647,0,0,1,1,2,2,3,3,4,4,5,5,6,6,7,7,9,9,11,11,18,18,19,19,20,20,22,22,23,23,24,24,25,25],"right_children":[2,4,6,8,10,12,14,16,-1,18,-1,20,-1,-1,-1,-1,-1,-1,22,24,26,-1,28,30,32,34,-1,-1,-1,-1,-1,-1,-1,-1,-1],"split_conditions":[6.5E1,5.5E1,2.443E1,4.4E1,1.6E2,8.7E1,5.64E2,-7.5E-1,-1.4500308E-1,5.6E1,5.2009206E-2,2E0,1.4668211E-1,1.664919E-1,1.5795305E-2,-9.554028E-2,2.9954577E-2,5.3495493E-2,-1.25E0,2.3385E1,2.289E1,-4.0163966E-3,4.93E2,2.185E1,5.36E2,3E0,-9.829656E-2,-3.855525E-2,-1.4905606E-1,-3.803065E-2,-1.6334751E-1,-5.666298E-2,1.0643755E-1,1.8726785E-1,7.836011E-3],"split_indices":[0,0,8,4,4,0,7,2,0,0,0,2,0,0,0,0,0,0,3,8,8,0,7,8,7,2,0,0,0,0,0,0,0,0,0],"split_type":[0,0,0,0,0,0,0,0,0,0,0,0,0,0,0,0,0,0,0,0,0,0,0,0,0,0,0,0,0,0,0,0,0,0,0],"sum_hessian":[4.6223408E1,2.1269617E1,2.495379E1,9.663166E0,1.1606452E1,2.154685E1,3.406941E0,2.2611706E0,7.4019957E0,9.431945E0,2.1745067E0,1.9848915E1,1.6979344E0,2.1374745E0,1.2694664E0,1.253037E0,1.0081335E0,1.3972056E0,8.0347395E0,1.1853975E1,7.9949408E0,1.1887941E0,6.8459454E0,6.06353E0,5.7904453E0,5.507009E0,2.4879315E0,1.985849E0,4.8600965E0,1.1444799E0,4.91905E0,2.6579325E0,3.1325128E0,2.4257858E0,3.0812235E0],"tree_param":{"num_deleted":"0","num_feature":"9","num_nodes":"35","size_leaf_vector":"1"}},{"base_weights":[-1.3231352E-1,-6.557736E-2,-3.588443E-1,-2.7794233E-1,3.0269582E-2,-1.4810954E-1,-8.356194E-2,-1.4428528E-1,-2.4694744E-2,3.8851842E-1,-8.992082E-2,7.192048E-2,-1.1039059E-1,-1.2157388E-1,3.899675E-1,-2.2711234E-2,5.48525E-1,-2.720258E-1,2.3230733E-1,1.2087879E-2,1.8317838E-1,3.4527685E-2,1.9377823E-1,-4.4120097E-1,9.335896E-2,-1.0654501E-1,4.154589E-1,-4.2017875E-3,-1.5189916E-1,8.676163E-2,-4.2231124E-2,1.5106353E-1,2.3258947E-2],"categories":[],"categories_nodes":[],"categories_segments":[],"categories_sizes":[],"default_left":[0,0,0,0,0,0,0,0,0,0,0,0,0,0,0,0,0,0,0,0,0,0,0,0,0,0,0,0,0,0,0,0,0],"id":23,"left_children":[1,3,5,7,9,-1,11,-1,13,15,17,-1,-1,-1,19,-1,21,23,25,-1,-1,-1,-1,27,29,-1,31,-1,-1,-1,-1,-1,-1],"loss_changes":[6.6422486E-1,7.485923E-1,3.3475947E-1,5.745575E-1,1.1526219E0,0E0,5.0511974E-1,0E0,1.1252651E0,5.3985023E-1,1.2513789E0,0E0,0E0,0E0,2.4100745E-1,0E0,1.4140964E-1,8.6937195E-1,9.922495E-1,0E0,0E0,0E0,0E0,2.5256622E-1,2.7298117E-1,0E0,1.5283108E-1,0E0,0E0,0E0,0E0,0E0,0E0],"parents":[2147483647,0,0,1,1,2,2,3,3,4,4,6,6,8,8,9,9,10,10,14,14,16,16,17,17,18,18,23,23,24,24,26,26],"right_children":[2,4,6,8,10,-1,12,-1,14,16,18,-1,-1,-1,20,-1,22,24,26,-1,-1,-1,-1,28,30,-1,32,-1,-1,-1,-1,-1,-1],"split_conditions":[7E1,5.27E2,7.8E1,1E0,5.36E2,-1.4810954E-1,9.1E1,-1.4428528E-1,2.33E1,5.1E1,2.431E1,7.192048E-2,-1.1039059E-1,-1.2157388E-1,-5E-1,-2.2711234E-2,-1E0,2E1,-3.75E0,1.2087879E-2,1.8317838E-1,3.4527685E-2,1.9377823E-1,-7.5E-1,-5E-1,-1.0654501E-1,1.77E1,-4.2017875E-3,-1.5189916E-1,8.676163E-2,-4.2231124E-2,1.5106353E-1,2.3258947E-2],"split_indices":[0,7,0,2,7,0,4,0,8,0,8,0,0,0,3,0,3,6,2,0,0,0,0,2,3,0,6,0,0,0,0,0,0],"split_type":[0,0,0,0,0,0,0,0,0,0,0,0,0,0,0,0,0,0,0,0,0,0,0,0,0,0,0,0,0,0,0,0,0],"sum_hessian":[4.449321E1,3.5364334E1,9.128878E0,1.0406695E1,2.4957638E1,5.59473E0,3.5341477E0,5.277227E0,5.129469E0,5.708855E0,1.9248781E1,1.7274985E0,1.8066492E0,2.68659E0,2.4428792E0,1.5983824E0,4.110473E0,1.239796E1,6.8508224E0,1.4025651E0,1.040314E0,1.1545295E0,2.9559436E0,8.332479E0,4.065481E0,1.4050454E0,5.445777E0,1.2630403E0,7.069438E0,2.0856345E0,1.9798467E0,3.93101E0,1.514767E0],"tree_param":{"num_deleted":"0","num_feature":"9","num_nodes":"33","size_leaf_vector":"1"}},{"base_weights":[1.4858739E-1,2.9073954E-1,6.752649E-2,8.828683E-2,3.5920593E-1,-1.0810292E-1,1.9343445E-1,1.175155E-1,-1.2788273E-1,4.684348E-1,1.3120054E-1,1.2038576E-1,-1.747984E-1,3.0659544E-1,8.328077E-2,3.3943564E-2,-1.01471975E-1,5.922574E-2,1.5280066E-1,3.414397E-1,-6.0222223E-2,-3.2401276E-1,9.9363476E-2,-1.497098E-2,4.5706698E-1,-9.062834E-2,2.0893332E-1,1.2308526E-1,1.9195268E-2,-1.6066006E-1,-1.3602369E-1,1.3394357E-1,-2.1393837E-1,2.5140288E-1,-1.1713726E-1,1.5404539E-1,3.535558E-2,-8.3374694E-2,3.1093076E-1,6.0885575E-2,-1.3765986E-1,3.0042972E-2,-1.1427807E-1,9.761791E-2,1.3961681E-2,6.838403E-2,-1.0462356E-1,1.4531234E-1,3.0525995E-2],"categories":[],"categories_nodes":[],"categories_segments":[],"categories_sizes":[],"default_left":[0,0,0,0,0,0,0,0,0,0,0,0,0,0,0,0,0,0,0,0,0,0,0,0,0,0,0,0,0,0,0,0,0,0,0,0,0,0,0,0,0,0,0,0,0,0,0,0,0],"id":24,"left_children":[1,3,5,7,9,11,13,-1,15,17,19,-1,21,23,25,-1,-1,-1,-1,27,-1,29,31,33,35,-1,37,-1,-1,-1,39,-1,41,43,-1,-1,-1,45,47,-1,-1,-1,-1,-1,-1,-1,-1,-1,-1],"loss_changes":[6.5350235E-1,2.5814962E-1,8.723759E-1,4.8370653E-1,3.196119E-1,6.3816655E-1,2.584908E-1,0E0,2.7222565E-1,9.807825E-3,5.1134115E-1,0E0,6.654756E-1,5.326326E-1,6.88706E-1,0E0,0E0,0E0,0E0,5.502209E-2,0E0,3.3509386E-1,7.7208126E-1,5.4146767E-1,8.175945E-2,0E0,3.3401978E-1,0E0,0E0,0E0,8.3424515E-1,0E0,2.451017E-1,3.3379048E-2,0E0,0E0,0E0,3.6548027E-1,2.363159E-1,0E0,0E0,0E0,0E0,0E0,0E0,0E0,0E0,0E0,0E0],"parents":[2147483647,0,0,1,1,2,2,3,3,4,4,5,5,6,6,8,8,9,9,10,10,12,12,13,13,14,14,19,19,21,21,22,22,23,23,24,24,26,26,30,30,32,32,33,33,37,37,38,38],"right_children":[2,4,6,8,10,12,14,-1,16,18,20,-1,22,24,26,-1,-1,-1,-1,28,-1,30,32,34,36,-1,38,-1,-1,-1,40,-1,42,44,-1,-1,-1,46,48,-1,-1,-1,-1,-1,-1,-1,-1,-1,-1],"split_conditions":[1.6E1,7.9E1,1.7E1,5.3E2,1.18E2,4.6E1,5.57E2,1.175155E-1,-7.5E-1,-1.5E0,6E1,1.2038576E-1,1.05E2,5.22E2,5.69E2,3.3943564E-2,-1.01471975E-1,5.922574E-2,1.5280066E-1,5.7E1,-6.0222223E-2,6.3E1,2.283E1,5.02E2,2.1E1,-9.062834E-2,4.9E1,1.2308526E-1,1.9195268E-2,-1.6066006E-1,7.1E1,1.3394357E-1,1.26E2,2E0,-1.1713726E-1,1.5404539E-1,3.535558E-2,4.7E1,6.6E1,6.0885575E-2,-1.3765986E-1,3.0042972E-2,-1.1427807E-1,9.761791E-2,1.3961681E-2,6.838403E-2,-1.0462356E-1,1.4531234E-1,3.0525995E-2],"split_indices":[6,4,6,7,4,0,7,0,3,3,0,0,4,7,7,0,0,0,0,0,0,0,8,7,6,0,0,0,0,0,0,0,4,2,0,0,0,0,0,0,0,0,0,0,0,0,0,0,0],"split_type":[0,0,0,0,0,0,0,0,0,0,0,0,0,0,0,0,0,0,0,0,0,0,0,0,0,0,0,0,0,0,0,0,0,0,0,0,0,0,0,0,0,0,0,0,0,0,0,0,0],"sum_hessian":[5.7416737E1,1.99118E1,3.7504932E1,5.610688E0,1.4301112E1,1.5719361E1,2.1785572E1,1.9963611E0,3.6143272E0,8.956092E0,5.3450203E0,1.2390897E0,1.4480271E1,9.866433E0,1.191914E1,1.899734E0,1.7145932E0,1.9384363E0,7.017656E0,3.2548842E0,2.0901363E0,9.259111E0,5.2211604E0,3.4321773E0,6.4342556E0,2.5854337E0,9.333706E0,2.224247E0,1.0306371E0,3.4869416E0,5.7721696E0,2.2752633E0,2.9458969E0,2.2011328E0,1.2310445E0,5.0762405E0,1.3580151E0,2.4616368E0,6.8720694E0,2.9968846E0,2.7752852E0,1.1615275E0,1.7843695E0,1.1848621E0,1.0162706E0,1.1976403E0,1.2639964E0,3.037691E0,3.834378E0],"tree_param":{"num_deleted":"0","num_feature":"9","num_nodes":"49","size_leaf_vector":"1"}},{"base_weights":[-9.705196E-2,-2.1418136E-1,1.5674159E-1,-3.9150828E-1,-1.1496524E-1,2.7129114E-1,-1.1772787E-1,7.874648E-3,-1.4640471E-1,-3.4683654E-1,-5.8280057E-3,7.42693E-2,4.3288156E-1,-2.9995093E-1,7.647909E-2,1.2758952E-2,-1.3264892E-1,1.4903715E-1,-1.7490911E-1,1.3330284E-1,-1.6873468E-1,1.5567048E-1,9.900704E-3,-1.1723366E-1,-8.014938E-3,-1.1327557E-2,1.4471166E-1,-1.1266854E-1,-3.7743933E-2,-1.17120825E-1,4.1197564E-2,7.936029E-2,-7.738604E-2,5.003664E-2,-7.4795045E-2],"categories":[],"categories_nodes":[],"categories_segments":[],"categories_sizes":[],"default_left":[0,0,0,0,0,0,0,0,0,0,0,0,0,0,0,0,0,0,0,0,0,0,0,0,0,0,0,0,0,0,0,0,0,0,0],"id":25,"left_children":[1,3,5,7,9,11,13,-1,-1,15,17,19,21,23,-1,-1,-1,25,27,-1,29,-1,-1,-1,-1,31,-1,-1,33,-1,-1,-1,-1,-1,-1],"loss_changes":[1.3166244E0,4.8200428E-1,4.7860983E-1,4.2932987E-1,5.198728E-1,2.9660475E-1,4.0790072E-1,0E0,0E0,2.6315755E-1,4.1989207E-1,6.019703E-1,1.7089713E-1,8.230999E-2,0E0,0E0,0E0,4.5395523E-1,1.963767E-1,0E0,3.4276992E-1,0E0,0E0,0E0,0E0,5.2011186E-1,0E0,0E0,2.863243E-1,0E0,0E0,0E0,0E0,0E0,0E0],"parents":[2147483647,0,0,1,1,2,2,3,3,4,4,5,5,6,6,9,9,10,10,11,11,12,12,13,13,17,17,18,18,20,20,25,25,28,28],"right_children":[2,4,6,8,10,12,14,-1,-1,16,18,20,22,24,-1,-1,-1,26,28,-1,30,-1,-1,-1,-1,32,-1,-1,34,-1,-1,-1,-1,-1,-1],"split_conditions":[7E1,1.6E1,-7.5E-1,1.1E1,5.5E1,5.44E2,2.339E1,7.874648E-3,-1.4640471E-1,4.4E1,5.41E2,4.96E2,3E0,1.03E2,7.647909E-2,1.2758952E-2,-1.3264892E-1,2.4E1,6.5E1,1.3330284E-1,7.4E1,1.5567048E-1,9.900704E-3,-1.1723366E-1,-8.014938E-3,9.8E1,1.4471166E-1,-1.1266854E-1,1E0,-1.17120825E-1,4.1197564E-2,7.936029E-2,-7.738604E-2,5.003664E-2,-7.4795045E-2],"split_indices":[0,6,3,6,0,7,8,0,0,4,7,7,2,4,0,0,0,8,0,0,0,0,0,0,0,4,0,0,1,0,0,0,0,0,0],"split_type":[0,0,0,0,0,0,0,0,0,0,0,0,0,0,0,0,0,0,0,0,0,0,0,0,0,0,0,0,0,0,0,0,0,0,0],"sum_hessian":[4.2161667E1,2.8954725E1,1.32069435E1,9.331218E0,1.9623507E1,9.326231E0,3.880713E0,1.8877254E0,7.443493E0,5.583309E0,1.4040197E1,4.8600936E0,4.466137E0,2.7373185E0,1.1433945E0,1.2070199E0,4.376289E0,7.390041E0,6.6501565E0,1.5979763E0,3.2621174E0,3.430532E0,1.035605E0,1.7315314E0,1.0057871E0,5.6418242E0,1.7482169E0,1.9944872E0,4.6556697E0,1.7320676E0,1.5300498E0,2.6287916E0,3.0130324E0,2.4748466E0,2.180823E0],"tree_param":{"num_deleted":"0","num_feature":"9","num_nodes":"35","size_leaf_vector":"1"}},{"base_weights":[-1.0751911E-1,-4.4253398E-2,-3.2921037E-1,-1.2623963E-1,8.935505E-3,-1.4136828E-1,-6.165385E-2,-1.1227486E-1,4.5695044E-2,-1.0351175E-1,7.186836E-2,-4.1348778E-2,2.503679E-1,1.6266516E-1,-2.2180994E-1,-6.239239E-2,3.902299E-1,-6.053816E-2,1.7456177E-1,-1.22060664E-1,4.140667E-2,6.422914E-2,-9.5086835E-2,1.5889834E-1,4.8286626E-3],"categories":[],"categories_nodes":[],"categories_segments":[],"categories_sizes":[],"default_left":[0,0,0,0,0,0,0,0,0,0,0,0,0,0,0,0,0,0,0,0,0,0,0,0,0],"id":26,"left_children":[1,3,5,-1,7,-1,9,-1,11,-1,-1,13,15,17,19,21,23,-1,-1,-1,-1,-1,-1,-1,-1],"loss_changes":[5.7127345E-1,6.777339E-1,3.1742465E-1,0E0,4.4623122E-1,0E0,4.50754E-1,0E0,5.214799E-1,0E0,0E0,8.087733E-1,4.0501934E-1,1.7106304E0,8.2592183E-1,3.1780997E-1,3.123573E-1,0E0,0E0,0E0,0E0,0E0,0E0,0E0,0E0],"parents":[2147483647,0,0,1,1,2,2,4,4,6,6,8,8,11,11,12,12,13,13,14,14,15,15,16,16],"right_children":[2,4,6,-1,8,-1,10,-1,12,-1,-1,14,16,18,20,22,24,-1,-1,-1,-1,-1,-1,-1,-1],"split_conditions":[7E1,1.3E1,7.8E1,-1.2623963E-1,-3.75E0,-1.4136828E-1,-7.5E-1,-1.1227486E-1,2.421E1,-1.0351175E-1,7.186836E-2,5.36E2,5.43E2,5.27E2,2E1,2.474E1,1.77E1,-6.053816E-2,1.7456177E-1,-1.22060664E-1,4.140667E-2,6.422914E-2,-9.5086835E-2,1.5889834E-1,4.8286626E-3],"split_indices":[0,6,0,0,2,0,3,0,8,0,0,7,7,7,6,8,6,0,0,0,0,0,0,0,0],"split_type":[0,0,0,0,0,0,0,0,0,0,0,0,0,0,0,0,0,0,0,0,0,0,0,0,0],"sum_hessian":[4.076992E1,3.2651524E1,8.118397E0,3.1858966E0,2.9465628E1,4.8061156E0,3.312281E0,1.7755984E0,2.769003E1,1.6316868E0,1.6805941E0,1.9987617E1,7.702411E0,9.427879E0,1.0559739E1,2.5512311E0,5.15118E0,5.3206954E0,4.107184E0,6.8870587E0,3.6726804E0,1.2991494E0,1.2520819E0,3.4498155E0,1.7013642E0],"tree_param":{"num_deleted":"0","num_feature":"9","num_nodes":"25","size_leaf_vector":"1"}},{"base_weights":[1.3090885E-1,3.8450763E-1,8.4417365E-2,5.537113E-4,4.4582567E-1,1.09391816E-1,-9.466427E-2,1.5221986E-1,3.744859E-2,3.72359E-1,7.286182E-2,1.3215047E-1,1.3880458E-2,1.4232855E-1,-3.799943E-2,-1.20396696E-1,2.13837E-1,1.2490365E-1,-1.3650373E-1,1.0533404E-1,1.0242375E-2,2.8647806E-2,-8.4999E-2],"categories":[],"categories_nodes":[],"categories_segments":[],"categories_sizes":[],"default_left":[0,0,0,0,0,0,0,0,0,0,0,0,0,0,0,0,0,0,0,0,0,0,0],"id":27,"left_children":[1,3,5,-1,7,9,-1,-1,-1,11,13,-1,-1,15,17,-1,19,-1,21,-1,-1,-1,-1],"loss_changes":[5.9530514E-1,1.8613005E-1,4.967753E-1,0E0,7.231045E-2,3.9842182E-1,0E0,0E0,0E0,9.427774E-2,3.145318E-1,0E0,0E0,1.0533428E0,7.841945E-1,0E0,5.4666984E-1,0E0,5.076691E-1,0E0,0E0,0E0,0E0],"parents":[2147483647,0,0,1,1,2,2,4,4,5,5,9,9,10,10,13,13,14,14,16,16,18,18],"right_children":[2,4,6,-1,8,10,-1,-1,-1,12,14,-1,-1,16,18,-1,20,-1,22,-1,-1,-1,-1],"split_conditions":[4.7E1,3E1,2.604E1,5.537113E-4,1.75E2,4.91E2,-9.466427E-2,1.5221986E-1,3.744859E-2,6.9E1,9.8E1,1.3215047E-1,1.3880458E-2,2.207E1,2.261E1,-1.20396696E-1,5.5E2,1.2490365E-1,5E-1,1.0533404E-1,1.0242375E-2,2.8647806E-2,-8.4999E-2],"split_indices":[0,0,8,0,4,7,0,0,0,0,4,0,0,8,8,0,7,0,2,0,0,0,0],"split_type":[0,0,0,0,0,0,0,0,0,0,0,0,0,0,0,0,0,0,0,0,0,0,0],"sum_hessian":[5.224466E1,6.967622E0,4.527704E1,1.1045649E0,5.8630567E0,4.3299824E1,1.9772143E0,4.4321756E0,1.4308808E0,4.160017E0,3.913981E1,3.150755E0,1.0092623E0,2.3887701E1,1.5252106E1,2.2406535E0,2.1647047E1,2.14264E0,1.3109466E1,1.1731201E1,9.915847E0,5.2165504E0,7.8929157E0],"tree_param":{"num_deleted":"0","num_feature":"9","num_nodes":"23","size_leaf_vector":"1"}},{"base_weights":[-8.531154E-2,-2.6334783E-1,5.626913E-2,-1.3018921E-1,-1.7763744E-1,-3.2306733E-3,3.3897224E-1,-2.338703E-1,7.401008E-2,-6.1525937E-2,1.2689465E-1,1.4029098E-1,2.1046323E-3,-9.502088E-2,-1.3238749E-1,6.992991E-2,-4.111521E-2,-1.793806E-1,1.0376415E-1,-1.1213575E-1,7.8867905E-2,-4.519145E-1,1.1797429E-1,2.999622E-1,-9.197218E-2,-8.266777E-2,6.555664E-2,-3.9690286E-2,-1.489876E-1,-4.437678E-2,9.3727686E-2,1.5777598E-1,1.095802E-2],"categories":[],"categories_nodes":[],"categories_segments":[],"categories_sizes":[],"default_left":[0,0,0,0,0,0,0,0,0,0,0,0,0,0,0,0,0,0,0,0,0,0,0,0,0,0,0,0,0,0,0,0,0],"id":28,"left_children":[1,3,5,-1,7,9,11,13,15,17,-1,-1,-1,19,-1,-1,-1,21,23,-1,25,27,29,31,-1,-1,-1,-1,-1,-1,-1,-1,-1],"loss_changes":[1.0053132E0,1.8003309E-1,3.8313827E-1,0E0,2.0687902E-1,5.168368E-1,1.6579261E-1,2.8034317E-1,1.3960955E-1,3.741323E-1,0E0,0E0,0E0,4.161759E-1,0E0,0E0,0E0,9.463953E-1,7.5453144E-1,0E0,3.442607E-1,1.9425154E-2,3.5970494E-1,3.4229988E-1,0E0,0E0,0E0,0E0,0E0,0E0,0E0,0E0,0E0],"parents":[2147483647,0,0,1,1,2,2,4,4,5,5,6,6,7,7,8,8,9,9,13,13,17,17,18,18,20,20,21,21,22,22,23,23],"right_children":[2,4,6,-1,8,10,12,14,16,18,-1,-1,-1,20,-1,-1,-1,22,24,-1,26,28,30,32,-1,-1,-1,-1,-1,-1,-1,-1,-1],"split_conditions":[6.5E1,5E1,2.443E1,-1.3018921E-1,1.64E2,8.7E1,5.64E2,2.387E1,1.75E2,2E0,1.2689465E-1,1.4029098E-1,2.1046323E-3,2.277E1,-1.3238749E-1,6.992991E-2,-4.111521E-2,2.3385E1,2.289E1,-1.1213575E-1,1.6E1,2.205E1,5.36E2,3E0,-9.197218E-2,-8.266777E-2,6.555664E-2,-3.9690286E-2,-1.489876E-1,-4.437678E-2,9.3727686E-2,1.5777598E-1,1.095802E-2],"split_indices":[0,0,8,0,4,0,7,8,4,2,0,0,0,8,0,0,0,8,8,0,6,8,7,2,0,0,0,0,0,0,0,0,0],"split_type":[0,0,0,0,0,0,0,0,0,0,0,0,0,0,0,0,0,0,0,0,0,0,0,0,0,0,0,0,0,0,0,0,0],"sum_hessian":[3.8295223E1,1.658265E1,2.1712574E1,4.186269E0,1.2396379E1,1.8754032E1,2.9585414E0,1.0189982E1,2.2063973E0,1.725027E1,1.5037609E0,1.8375798E0,1.1209614E0,6.977378E0,3.2126043E0,1.1985533E0,1.007844E0,1.0020346E1,7.229925E0,2.238777E0,4.738601E0,4.957176E0,5.0631695E0,5.073217E0,2.156708E0,1.0643197E0,3.6742811E0,1.0942208E0,3.8629556E0,2.2397585E0,2.823411E0,2.1945152E0,2.8787017E0],"tree_param":{"num_deleted":"0","num_feature":"9","num_nodes":"33","size_leaf_vector":"1"}},{"base_weights":[-9.433413E-2,-3.4901142E-2,-3.0866945E-1,-1.1968704E-1,1.3878225E-2,-1.3497123E-1,-5.7797577E-2,1.335648E-1,-9.359843E-2,8.274691E-2,-1.0440312E-1,-9.447162E-2,1.968726E-1,-1.9215351E-2,-1.1330211E-1,9.995191E-2,1.7441347E-1,-1.3342302E-1,1.4614008E-1,7.972653E-2,-1.1789561E-1,1.9458272E-2,-9.127699E-2],"categories":[],"categories_nodes":[],"categories_segments":[],"categories_sizes":[],"default_left":[0,0,0,0,0,0,0,0,0,0,0,0,0,0,0,0,0,0,0,0,0,0,0],"id":29,"left_children":[1,3,5,-1,7,-1,9,11,13,-1,-1,-1,15,17,-1,19,-1,21,-1,-1,-1,-1,-1],"loss_changes":[4.777717E-1,5.587682E-1,2.6447874E-1,0E0,3.7832206E-1,0E0,4.9299425E-1,4.5570523E-1,3.2177603E-1,0E0,0E0,0E0,4.1767222E-1,8.3955187E-1,0E0,1.036523E0,0E0,4.1652596E-1,0E0,0E0,0E0,0E0,0E0],"parents":[2147483647,0,0,1,1,2,2,4,4,6,6,7,7,8,8,12,12,13,13,15,15,17,17],"right_children":[2,4,6,-1,8,-1,10,12,14,-1,-1,-1,16,18,-1,20,-1,22,-1,-1,-1,-1,-1],"split_conditions":[7E1,1.3E1,-7.5E-1,-1.1968704E-1,1E0,-1.3497123E-1,9.1E1,2E1,1.46E2,8.274691E-2,-1.0440312E-1,-9.447162E-2,6.9E1,1.26E2,-1.1330211E-1,6.2E1,1.7441347E-1,5.36E2,1.4614008E-1,7.972653E-2,-1.1789561E-1,1.9458272E-2,-9.127699E-2],"split_indices":[0,6,3,0,1,0,4,4,4,0,0,0,0,4,0,0,0,7,0,0,0,0,0],"split_type":[0,0,0,0,0,0,0,0,0,0,0,0,0,0,0,0,0,0,0,0,0,0,0],"sum_hessian":[3.7351555E1,3.0153212E1,7.198343E0,2.7145882E0,2.7438623E1,4.0979414E0,3.1004019E0,1.2867062E1,1.4571561E1,1.465401E0,1.6350008E0,1.100063E0,1.1766999E1,1.2393938E1,2.1776228E0,1.0404365E1,1.3626349E0,1.0713903E1,1.680035E0,8.130487E0,2.2738767E0,5.245667E0,5.4682364E0],"tree_param":{"num_deleted":"0","num_feature":"9","num_nodes":"23","size_leaf_vector":"1"}},{"base_weights":[1.1264781E-1,3.4965473E-1,7.061686E-2,-1.7141859E-3,4.1222546E-1,9.279119E-2,-8.5817665E-2,2.5744397E-2,1.3947044E-1,3.3856794E-1,5.9802167E-2,1.2398951E-1,1.0086708E-2,1.9488186E-2,2.567031E-1,-8.829964E-2,4.4612885E-2,-6.889426E-2,1.285128E-1,-5.9010345E-2,2.2796333E-2],"categories":[],"categories_nodes":[],"categories_segments":[],"categories_sizes":[],"default_left":[0,0,0,0,0,0,0,0,0,0,0,0,0,0,0,0,0,0,0,0,0],"id":30,"left_children":[1,3,5,-1,7,9,-1,-1,-1,11,13,-1,-1,15,17,-1,19,-1,-1,-1,-1],"loss_changes":[4.709854E-1,1.6338563E-1,3.7071913E-1,0E0,6.621635E-2,3.1805393E-1,0E0,0E0,0E0,9.3738556E-2,2.966481E-1,0E0,0E0,2.7037078E-1,6.3073575E-1,0E0,2.5022498E-1,0E0,0E0,0E0,0E0],"parents":[2147483647,0,0,1,1,2,2,4,4,5,5,9,9,10,10,13,13,14,14,16,16],"right_children":[2,4,6,-1,8,10,-1,-1,-1,12,14,-1,-1,16,18,-1,20,-1,-1,-1,-1],"split_conditions":[4.7E1,3E1,2.604E1,-1.7141859E-3,-2.5E0,4.91E2,-8.5817665E-2,2.5744397E-2,1.3947044E-1,6.9E1,3E0,1.2398951E-1,1.0086708E-2,4.96E2,2.201E1,-8.829964E-2,4.6E1,-6.889426E-2,1.285128E-1,-5.9010345E-2,2.2796333E-2],"split_indices":[0,0,8,0,2,7,0,0,0,0,2,0,0,7,8,0,4,0,0,0,0],"split_type":[0,0,0,0,0,0,0,0,0,0,0,0,0,0,0,0,0,0,0,0,0],"sum_hessian":[4.875864E1,6.2419767E0,4.2516666E1,1.0705419E0,5.171435E0,4.0724678E1,1.7919863E0,1.0839243E0,4.0875106E0,3.7231572E0,3.7001522E1,2.704958E0,1.0181992E0,3.162543E1,5.3760924E0,1.5500213E0,3.0075407E1,1.3144734E0,4.0616193E0,2.8541174E0,2.722129E1],"tree_param":{"num_deleted":"0","num_feature":"9","num_nodes":"21","size_leaf_vector":"1"}},{"base_weights":[-7.5621136E-2,-2.4223381E-1,5.4213583E-2,-5.9925217E-2,-3.075211E-1,9.250671E-2,-9.456768E-2,2.1618202E-1,-2.8403327E-1,-1.05112635E-1,-4.0503135E-1,-1.1631488E-2,2.3597074E-1,3.711137E-3,9.33004E-2,-1.0439382E-1,-2.0844284E-2,-2.4871819E-1,4.1029546E-2,-1.3900492E-1,-7.800639E-3,-6.638009E-2,6.2413845E-2,6.262184E-2,3.6124903E-1,1.5209044E-2,-1.16087355E-1,-2.1744382E-1,6.47893E-2,2.4912772E-1,-9.043933E-2,3.5228353E-2,1.3295558E-1,3.186326E-2,-1.03726186E-1,-4.525183E-2,5.3056963E-2,1.3230398E-1,-2.8277282E-2],"categories":[],"categories_nodes":[],"categories_segments":[],"categories_sizes":[],"default_left":[0,0,0,0,0,0,0,0,0,0,0,0,0,0,0,0,0,0,0,0,0,0,0,0,0,0,0,0,0,0,0,0,0,0,0,0,0,0,0],"id":31,"left_children":[1,3,5,7,9,11,-1,13,15,17,19,21,23,-1,-1,-1,-1,25,-1,-1,-1,27,-1,29,31,-1,-1,33,35,37,-1,-1,-1,-1,-1,-1,-1,-1,-1],"loss_changes":[7.964913E-1,1.7252207E-1,3.2864976E-1,4.000178E-1,1.8579459E-1,3.0087024E-1,0E0,5.4506302E-2,2.319327E-2,2.1159312E-1,1.5281272E-1,1.6432935E-1,1.6066116E-1,0E0,0E0,0E0,0E0,1.6707762E-1,0E0,0E0,0E0,2.276217E-1,0E0,3.9766595E-1,4.164183E-2,0E0,0E0,2.5424522E-1,1.8467802E-1,2.8461978E-1,0E0,0E0,0E0,0E0,0E0,0E0,0E0,0E0,0E0],"parents":[2147483647,0,0,1,1,2,2,3,3,4,4,5,5,7,7,8,8,9,9,10,10,11,11,12,12,17,17,21,21,23,23,24,24,27,27,28,28,29,29],"right_children":[2,4,6,8,10,12,-1,14,16,18,20,22,24,-1,-1,-1,-1,26,-1,-1,-1,28,-1,30,32,-1,-1,34,36,38,-1,-1,-1,-1,-1,-1,-1,-1,-1],"split_conditions":[6.5E1,-1E0,-2.5E-1,2.375E1,5.12E2,7.2E1,-9.456768E-2,2.298E1,2.497E1,-2.5E-1,2.509E1,2.439E1,2.302E1,3.711137E-3,9.33004E-2,-1.0439382E-1,-2.0844284E-2,5E-1,4.1029546E-2,-1.3900492E-1,-7.800639E-3,1.5E0,6.2413845E-2,-7.5E-1,9.1E1,1.5209044E-2,-1.16087355E-1,0E0,8.1E1,2.235E1,-9.043933E-2,3.5228353E-2,1.3295558E-1,3.186326E-2,-1.03726186E-1,-4.525183E-2,5.3056963E-2,1.3230398E-1,-2.8277282E-2],"split_indices":[0,3,3,8,7,0,0,8,8,3,8,8,8,0,0,0,0,2,0,0,0,2,0,3,4,0,0,2,4,8,0,0,0,0,0,0,0,0,0],"split_type":[0,0,0,0,0,0,0,0,0,0,0,0,0,0,0,0,0,0,0,0,0,0,0,0,0,0,0,0,0,0,0,0,0,0,0,0,0,0,0],"sum_hessian":[3.5212788E1,1.5042949E1,2.0169838E1,4.472312E0,1.0570637E1,1.8954742E1,1.2150958E0,2.0195446E0,2.4527674E0,4.1123414E0,6.458296E0,1.1515067E1,7.439676E0,1.00017E0,1.0193747E0,1.4104922E0,1.0422751E0,2.5626104E0,1.5497309E0,5.4043107E0,1.0539849E0,9.776399E0,1.7386686E0,3.7502613E0,3.6894143E0,1.0094653E0,1.5531452E0,4.2379494E0,5.538449E0,2.6887E0,1.0615613E0,1.5399828E0,2.1494315E0,1.2520244E0,2.985925E0,1.7757511E0,3.7626977E0,1.5424567E0,1.1462433E0],"tree_param":{"num_deleted":"0","num_feature":"9","num_nodes":"39","size_leaf_vector":"1"}},{"base_weights":[-8.005847E-2,-1.1928024E-1,-4.1271187E-2,7.356906E-3,-3.1114992E-1,-1.02140285E-1,4.143513E-2,8.026609E-3,-1.2256838E-1,-1.02301784E-1,7.7828035E-2,1.278666E-1,-1.5567888E-1,-4.5145392E-2,5.896391E-2,1.9817457E-2,-1.0527144E-1],"categories":[],"categories_nodes":[],"categories_segments":[],"categories_sizes":[],"default_left":[0,0,0,0,0,0,0,0,0,0,0,0,0,0,0,0,0],"id":32,"left_children":[1,-1,3,5,7,-1,9,-1,-1,-1,11,13,15,-1,-1,-1,-1],"loss_changes":[4.2462596E-1,0E0,4.3571496E-1,3.5738713E-1,1.7766231E-1,0E0,4.0606087E-1,0E0,0E0,0E0,3.2034487E-1,4.4488236E-1,2.3913214E-1,0E0,0E0,0E0,0E0],"parents":[2147483647,0,0,2,2,3,3,4,4,6,6,10,10,11,11,12,12],"right_children":[2,-1,4,6,8,-1,10,-1,-1,-1,12,14,16,-1,-1,-1,-1],"split_conditions":[4.93E2,-1.1928024E-1,2.25E0,1.3E1,6.2E1,-1.02140285E-1,-3.75E0,8.026609E-3,-1.2256838E-1,-1.02301784E-1,7E1,4.7E1,9.1E1,-4.5145392E-2,5.896391E-2,1.9817457E-2,-1.0527144E-1],"split_indices":[7,0,2,6,0,0,2,0,0,0,0,0,4,0,0,0,0],"split_type":[0,0,0,0,0,0,0,0,0,0,0,0,0,0,0,0,0],"sum_hessian":[3.48082E1,2.7819805E0,3.2026222E1,2.7960838E1,4.065383E0,1.6927513E0,2.6268087E1,1.0720247E0,2.9933581E0,1.5551723E0,2.4712915E1,2.0724283E1,3.9886317E0,3.865746E0,1.6858538E1,2.1772964E0,1.8113354E0],"tree_param":{"num_deleted":"0","num_feature":"9","num_nodes":"17","size_leaf_vector":"1"}},{"base_weights":[9.589855E-2,3.1235412E-1,5.9175115E-2,-5.2334704E-3,3.7928843E-1,1.8463756E-1,-3.5052947E-3,1.3473272E-1,2.2221167E-2,2.6887584E-1,-1.0713866E-1,-6.632908E-2,2.8531933E-1,3.8332564E-1,-2.9315809E-2,1.7382146E-1,-1.9916348E-1,1.2586556E-1,7.891253E-2,1.4866312E-1,6.655308E-2,9.180325E-2,-2.4903895E-1,-2.1316922E-1,3.3191878E-1,-3.9205067E-2,-2.8557765E-1,8.085116E-2,-4.57102E-2,-5.066122E-2,9.814554E-2,-1.1755609E-1,1.0194289E-2,2.8692633E-2,-1.23456016E-1,-1.0526571E-2,1.3769239E-1,-6.978817E-2,1.0014071E-1,-1.2014399E-1,-2.3777075E-2],"categories":[],"categories_nodes":[],"categories_segments":[],"categories_sizes":[],"default_left":[0,0,0,0,0,0,0,0,0,0,0,0,0,0,0,0,0,0,0,0,0,0,0,0,0,0,0,0,0,0,0,0,0,0,0,0,0,0,0,0,0],"id":33,"left_children":[1,3,5,-1,7,9,11,-1,-1,13,-1,15,17,19,21,23,25,-1,27,-1,29,-1,31,33,35,37,39,-1,-1,-1,-1,-1,-1,-1,-1,-1,-1,-1,-1,-1,-1],"loss_changes":[3.5760888E-1,1.5295148E-1,3.2845348E-1,0E0,8.510518E-2,7.30652E-1,5.411098E-1,0E0,0E0,4.4142443E-1,0E0,8.1452686E-1,1.1456844E-1,2.9334784E-1,4.0224546E-1,6.3613766E-1,2.1283299E-1,0E0,1.8793847E-1,0E0,2.7344206E-1,0E0,1.4365557E-1,2.4083056E-1,3.4026974E-1,5.71417E-1,2.1394551E-1,0E0,0E0,0E0,0E0,0E0,0E0,0E0,0E0,0E0,0E0,0E0,0E0,0E0,0E0],"parents":[2147483647,0,0,1,1,2,2,4,4,5,5,6,6,9,9,11,11,12,12,13,13,14,14,15,15,16,16,18,18,20,20,22,22,23,23,24,24,25,25,26,26],"right_children":[2,4,6,-1,8,10,12,-1,-1,14,-1,16,18,20,22,24,26,-1,28,-1,30,-1,32,34,36,38,40,-1,-1,-1,-1,-1,-1,-1,-1,-1,-1,-1,-1,-1,-1],"split_conditions":[4.7E1,3E1,1E0,-5.2334704E-3,1.75E2,5.88E2,5.88E2,1.3473272E-1,2.2221167E-2,-5E-1,-1.0713866E-1,1.6E1,2.267E1,7E1,5.6E1,7.9E1,5.32E2,1.2586556E-1,6E2,1.4866312E-1,3E0,9.180325E-2,1E0,6.4E1,1E0,2.387E1,1.7E1,8.085116E-2,-4.57102E-2,-5.066122E-2,9.814554E-2,-1.1755609E-1,1.0194289E-2,2.8692633E-2,-1.23456016E-1,-1.0526571E-2,1.3769239E-1,-6.978817E-2,1.0014071E-1,-1.2014399E-1,-2.3777075E-2],"split_indices":[0,0,5,0,4,7,7,0,0,3,0,6,8,0,0,4,7,0,7,0,2,0,2,0,1,8,6,0,0,0,0,0,0,0,0,0,0,0,0,0,0],"split_type":[0,0,0,0,0,0,0,0,0,0,0,0,0,0,0,0,0,0,0,0,0,0,0,0,0,0,0,0,0,0,0,0,0,0,0,0,0,0,0,0,0],"sum_hessian":[4.6313244E1,5.6290226E0,4.0684223E1,1.0744348E0,4.554588E0,1.2905868E1,2.7778357E1,3.3229935E0,1.2315943E0,1.1605114E1,1.300753E0,2.3448332E1,4.330024E0,8.180017E0,3.425097E0,8.240972E0,1.5207361E1,1.9980114E0,2.3320122E0,5.6235113E0,2.556506E0,1.2004064E0,2.2246904E0,2.289178E0,5.951793E0,5.843794E0,9.363567E0,1.1878589E0,1.1441532E0,1.5280559E0,1.02845E0,1.2230055E0,1.001685E0,1.0978127E0,1.1913651E0,1.7167386E0,4.235055E0,4.0961113E0,1.7476822E0,5.4097576E0,3.9538095E0],"tree_param":{"num_deleted":"0","num_feature":"9","num_nodes":"41","size_leaf_vector":"1"}},{"base_weights":[-6.26848E-2,-3.467616E-1,4.172644E-3,-2.2549242E-2,-1.2555088E-1,-2.0745918E-1,7.347228E-2,4.1612726E-2,-3.4915602E-1,1.6888033E-1,-5.949827E-2,-8.055206E-3,-1.2598889E-1,3.6605492E-2,3.4245163E-1,8.23932E-3,-9.331404E-2,1.899855E-1,-1.06482245E-1,1.2615007E-1,2.0181332E-2,-8.5953996E-2,8.4790096E-2,-3.248735E-2,9.9382974E-2,6.978729E-2,-9.5405884E-2,8.144668E-2,-4.399499E-2],"categories":[],"categories_nodes":[],"categories_segments":[],"categories_sizes":[],"default_left":[0,0,0,0,0,0,0,0,0,0,0,0,0,0,0,0,0,0,0,0,0,0,0,0,0,0,0,0,0],"id":34,"left_children":[1,3,5,-1,-1,7,9,-1,11,13,15,-1,-1,17,19,21,-1,23,25,-1,-1,-1,27,-1,-1,-1,-1,-1,-1],"loss_changes":[6.459817E-1,9.4748974E-2,4.326207E-1,0E0,0E0,4.0560606E-1,2.913979E-1,0E0,1.1312598E-1,2.8990248E-1,1.7302844E-1,0E0,0E0,2.0887297E-1,9.150159E-2,2.2411677E-1,0E0,2.2584602E-1,4.3894318E-1,0E0,0E0,0E0,3.769281E-1,0E0,0E0,0E0,0E0,0E0,0E0],"parents":[2147483647,0,0,1,1,2,2,5,5,6,6,8,8,9,9,10,10,13,13,14,14,15,15,17,17,18,18,22,22],"right_children":[2,4,6,-1,-1,8,10,-1,12,14,16,-1,-1,18,20,22,-1,24,26,-1,-1,-1,28,-1,-1,-1,-1,-1,-1],"split_conditions":[5.5E1,4.4E1,1.6E1,-2.2549242E-2,-1.2555088E-1,1.1E1,1.7E1,4.1612726E-2,4.96E2,7.1E1,3E0,-8.055206E-3,-1.2598889E-1,1E0,7.9E1,1.8E1,-9.331404E-2,2.323E1,-1.25E0,1.2615007E-1,2.0181332E-2,-8.5953996E-2,5.69E2,-3.248735E-2,9.9382974E-2,6.978729E-2,-9.5405884E-2,8.144668E-2,-4.399499E-2],"split_indices":[0,4,6,0,0,6,6,0,7,0,2,0,0,2,0,6,0,8,3,0,0,0,7,0,0,0,0,0,0],"split_type":[0,0,0,0,0,0,0,0,0,0,0,0,0,0,0,0,0,0,0,0,0,0,0,0,0,0,0,0,0],"sum_hessian":[3.2936016E1,5.477133E0,2.7458883E1,1.5723308E0,3.904802E0,6.2817135E0,2.117717E1,1.8306016E0,4.451112E0,1.21729E1,9.004269E0,1.0501508E0,3.4009612E0,7.5954623E0,4.577438E0,7.856025E0,1.1482439E0,3.5076995E0,4.087763E0,3.1546154E0,1.4228225E0,1.0541846E0,6.801841E0,1.2025597E0,2.30514E0,1.5320748E0,2.5556881E0,3.669043E0,3.1327975E0],"tree_param":{"num_deleted":"0","num_feature":"9","num_nodes":"29","size_leaf_vector":"1"}},{"base_weights":[-7.0653334E-2,-1.12263404E-1,-3.663462E-2,5.3485828E-3,-2.8738314E-1,-9.662656E-2,3.588265E-2,9.692429E-3,-1.1606746E-1,-9.7859174E-2,6.929241E-2,1.3383228E-1,-7.793077E-2,-2.5447386E-3,6.6502996E-2,7.4761294E-2,-7.129086E-2],"categories":[],"categories_nodes":[],"categories_segments":[],"categories_sizes":[],"default_left":[0,0,0,0,0,0,0,0,0,0,0,0,0,0,0,0,0],"id":35,"left_children":[1,-1,3,5,7,-1,9,-1,-1,-1,11,13,15,-1,-1,-1,-1],"loss_changes":[3.3853495E-1,0E0,3.3610612E-1,2.9355067E-1,1.580809E-1,0E0,3.4558016E-1,0E0,0E0,0E0,2.50523E-1,2.2609788E-1,4.9458528E-1,0E0,0E0,0E0,0E0],"parents":[2147483647,0,0,2,2,3,3,4,4,6,6,10,10,11,11,12,12],"right_children":[2,-1,4,6,8,-1,10,-1,-1,-1,12,14,16,-1,-1,-1,-1],"split_conditions":[4.93E2,-1.12263404E-1,2.25E0,1.3E1,6.2E1,-9.662656E-2,-3.75E0,9.692429E-3,-1.1606746E-1,-9.7859174E-2,5.68E2,-7.5E-1,-1.25E0,-2.5447386E-3,6.6502996E-2,7.4761294E-2,-7.129086E-2],"split_indices":[7,0,2,6,0,0,2,0,0,0,7,3,3,0,0,0,0],"split_type":[0,0,0,0,0,0,0,0,0,0,0,0,0,0,0,0,0],"sum_hessian":[3.311018E1,2.328873E0,3.078131E1,2.7205004E1,3.576305E0,1.506057E0,2.5698946E1,1.0092388E0,2.5670662E0,1.430652E0,2.4268293E1,1.6935184E1,7.333109E0,6.8084316E0,1.0126754E1,2.2217512E0,5.111358E0],"tree_param":{"num_deleted":"0","num_feature":"9","num_nodes":"17","size_leaf_vector":"1"}},{"base_weights":[8.620928E-2,2.86773E-1,5.1764227E-2,3.6692065E-1,-5.8125863E-3,-6.022936E-2,1.1368916E-1,2.5452482E-2,1.2740603E-1,2.00997E-1,-1.8588182E-1,-1.0693375E-1,1.7706485E-1,3.6270013E-1,-5.9120774E-2,-5.8741383E-3,-2.9142386E-1,-3.0236125E-1,2.0121242E-1,-1.3184398E-1,2.5536704E-1,1.3416916E-1,2.196937E-2,-1.0156933E-1,1.7308968E-1,-1.08353294E-1,7.250428E-3,-1.343843E-1,1.3940288E-2,8.58098E-2,5.303977E-3,3.0042078E-2,-2.474253E-1,3.0896306E-1,-6.1307847E-2,1.078165E-1,-5.112959E-2,-2.0955382E-2,-9.9579975E-2,1.035599E-1,-1.8833259E-3],"categories":[],"categories_nodes":[],"categories_segments":[],"categories_sizes":[],"default_left":[0,0,0,0,0,0,0,0,0,0,0,0,0,0,0,0,0,0,0,0,0,0,0,0,0,0,0,0,0,0,0,0,0,0,0,0,0,0,0,0,0],"id":36,"left_children":[1,3,5,7,-1,9,11,-1,-1,13,15,17,19,21,-1,23,25,27,29,31,33,-1,-1,-1,35,-1,-1,-1,-1,-1,-1,-1,37,39,-1,-1,-1,-1,-1,-1,-1],"loss_changes":[2.871902E-1,1.589374E-1,2.7407476E-1,4.469323E-2,0E0,5.091473E-1,3.70707E-1,0E0,0E0,4.0289143E-1,1.9253904E-1,4.3647867E-1,5.155219E-1,6.545293E-2,0E0,3.4437314E-1,1.5016538E-1,2.349529E-1,4.197468E-2,1.5047523E-1,4.6311367E-1,0E0,0E0,0E0,3.033275E-1,0E0,0E0,0E0,0E0,0E0,0E0,0E0,2.8092578E-2,1.7278767E-1,0E0,0E0,0E0,0E0,0E0,0E0,0E0],"parents":[2147483647,0,0,1,1,2,2,3,3,5,5,6,6,9,9,10,10,11,11,12,12,13,13,15,15,16,16,17,17,18,18,19,19,20,20,24,24,32,32,33,33],"right_children":[2,4,6,8,-1,10,12,-1,-1,14,16,18,20,22,-1,24,26,28,30,32,34,-1,-1,-1,36,-1,-1,-1,-1,-1,-1,-1,38,40,-1,-1,-1,-1,-1,-1,-1],"split_conditions":[4.7E1,2.527E1,1E0,3.9E1,-5.8125863E-3,-1.5E0,7.6E1,2.5452482E-2,1.2740603E-1,9.5E1,1E0,1.75E0,-1.5E0,5.47E2,-5.9120774E-2,-1E0,2E1,2.385E1,5.27E2,7E1,1.65E2,1.3416916E-1,2.196937E-2,-1.0156933E-1,6.5E1,-1.08353294E-1,7.250428E-3,-1.343843E-1,1.3940288E-2,8.58098E-2,5.303977E-3,3.0042078E-2,1.7E1,7.7E1,-6.1307847E-2,1.078165E-1,-5.112959E-2,-2.0955382E-2,-9.9579975E-2,1.035599E-1,-1.8833259E-3],"split_indices":[0,8,1,0,0,3,4,0,0,4,5,2,3,7,0,3,6,8,7,0,4,0,0,0,0,0,0,0,0,0,0,0,6,0,0,0,0,0,0,0,0],"split_type":[0,0,0,0,0,0,0,0,0,0,0,0,0,0,0,0,0,0,0,0,0,0,0,0,0,0,0,0,0,0,0,0,0,0,0,0,0,0,0,0,0],"sum_hessian":[4.2719757E1,5.1877074E0,3.753205E1,3.9540546E0,1.2336526E0,1.3373304E1,2.4158745E1,1.0917267E0,2.862328E0,4.1486998E0,9.224605E0,5.2377687E0,1.8920977E1,3.0134258E0,1.135274E0,3.7996879E0,5.424917E0,3.2165763E0,2.021192E0,3.6879425E0,1.5233034E1,1.9105154E0,1.1029105E0,1.0171051E0,2.7825825E0,4.3246217E0,1.1002952E0,2.0689406E0,1.1476357E0,1.0003785E0,1.0208136E0,1.2708344E0,2.417108E0,1.3936254E1,1.2967803E0,1.7742066E0,1.008376E0,1.3683658E0,1.0487423E0,1.2414218E1,1.5220355E0],"tree_param":{"num_deleted":"0","num_feature":"9","num_nodes":"41","size_leaf_vector":"1"}},{"base_weights":[-5.7714608E-2,7.7277824E-2,-1.7943452E-1,-1.5328635E-1,1.6081323E-1,-2.7592504E-1,-1.4360003E-2,4.9579486E-2,-8.763606E-2,-5.097158E-2,2.2770745E-1,1.1094437E-2,-3.1942466E-1,6.809968E-2,-1.4403228E-1,-2.382619E-2,3.07062E-1,-7.875701E-2,-1.3575225E-1,-9.269234E-2,3.834761E-2,1.3870825E-1,1.3208903E-1,-2.1751827E-1,3.95597E-2,-4.4088498E-2,7.59681E-2,4.1496614E-3,-1.0035996E-1],"categories":[],"categories_nodes":[],"categories_segments":[],"categories_sizes":[],"default_left":[0,0,0,0,0,0,0,0,0,0,0,0,0,0,0,0,0,0,0,0,0,0,0,0,0,0,0,0,0],"id":37,"left_children":[1,3,5,7,9,11,13,-1,-1,-1,15,-1,17,-1,19,-1,21,23,-1,-1,-1,-1,25,27,-1,-1,-1,-1,-1],"loss_changes":[5.285122E-1,3.241449E-1,2.6317263E-1,2.53816E-1,3.0200645E-1,1.5513319E-1,2.593449E-1,0E0,0E0,0E0,2.7608228E-1,0E0,2.6377076E-1,0E0,2.7816606E-1,0E0,1.6751492E-1,1.6135138E-1,0E0,0E0,0E0,0E0,2.1825078E-1,8.892582E-2,0E0,0E0,0E0,0E0,0E0],"parents":[2147483647,0,0,1,1,2,2,3,3,4,4,5,5,6,6,10,10,12,12,14,14,16,16,17,17,22,22,23,23],"right_children":[2,4,6,8,10,12,14,-1,-1,-1,16,-1,18,-1,20,-1,22,24,-1,-1,-1,-1,26,28,-1,-1,-1,-1,-1],"split_conditions":[-1E0,1E0,6.8E1,5.09E2,5.09E2,-2.25E0,1E0,4.9579486E-2,-8.763606E-2,-5.097158E-2,7.2E1,1.1094437E-2,5.12E2,6.809968E-2,1.03E2,-2.382619E-2,-1.75E0,-2.5E-1,-1.3575225E-1,-9.269234E-2,3.834761E-2,1.3870825E-1,5E-1,1.15E2,3.95597E-2,-4.4088498E-2,7.59681E-2,4.1496614E-3,-1.0035996E-1],"split_indices":[3,5,0,7,7,2,5,0,0,0,4,0,7,0,4,0,3,3,0,0,0,0,2,4,0,0,0,0,0],"split_type":[0,0,0,0,0,0,0,0,0,0,0,0,0,0,0,0,0,0,0,0,0,0,0,0,0,0,0,0,0],"sum_hessian":[3.032113E1,1.4549855E1,1.5771275E1,3.6474965E0,1.0902359E1,9.529505E0,6.2417703E0,1.0493668E0,2.5981297E0,1.5751354E0,9.327224E0,1.1813713E0,8.348133E0,1.9191324E0,4.322638E0,1.9149414E0,7.4122825E0,3.5393481E0,4.808785E0,2.6053705E0,1.7172675E0,3.056759E0,4.355523E0,2.1139247E0,1.4254233E0,1.2538973E0,3.101626E0,1.0062522E0,1.1076726E0],"tree_param":{"num_deleted":"0","num_feature":"9","num_nodes":"29","size_leaf_vector":"1"}},{"base_weights":[-6.112207E-2,-9.953338E-2,1.7994587E-1,8.0029055E-2,-1.255046E-1,2.4682082E-1,-8.314461E-3,-6.430682E-2,-3.224445E-1,9.050014E-2,1.6841194E-2,-4.270921E-3,-2.835479E-1,-1.2894392E-1,2.2225844E-2,-2.671911E-1,8.351069E-2,1.25204045E-2,-1.1824169E-1,-1.7040962E-5,-1.1502638E-1,-1.4440372E-2,9.403464E-2],"categories":[],"categories_nodes":[],"categories_segments":[],"categories_sizes":[],"default_left":[0,0,0,0,0,0,0,0,0,0,0,0,0,0,0,0,0,0,0,0,0,0,0],"id":38,"left_children":[1,3,5,-1,7,9,-1,11,13,-1,-1,15,17,-1,-1,19,21,-1,-1,-1,-1,-1,-1],"loss_changes":[3.150487E-1,3.0292E-1,7.303375E-2,0E0,3.0621517E-1,2.1827072E-2,0E0,2.876433E-1,2.9504782E-1,0E0,0E0,4.433585E-1,1.8560725E-1,0E0,0E0,1.491518E-1,4.5215276E-1,0E0,0E0,0E0,0E0,0E0,0E0],"parents":[2147483647,0,0,1,1,2,2,4,4,5,5,7,7,8,8,11,11,12,12,15,15,16,16],"right_children":[2,4,6,-1,8,10,-1,12,14,-1,-1,16,18,-1,-1,20,22,-1,-1,-1,-1,-1,-1],"split_conditions":[2.2E1,5E0,5.94E2,8.0029055E-2,1.77E1,5.4E1,-8.314461E-3,7E1,6E2,9.050014E-2,1.6841194E-2,5.1E1,2.235E1,-1.2894392E-1,2.2225844E-2,-2.25E0,-5E-1,1.25204045E-2,-1.1824169E-1,-1.7040962E-5,-1.1502638E-1,-1.4440372E-2,9.403464E-2],"split_indices":[6,4,7,0,6,0,0,0,7,0,0,0,8,0,0,2,3,0,0,0,0,0,0],"split_type":[0,0,0,0,0,0,0,0,0,0,0,0,0,0,0,0,0,0,0,0,0,0,0],"sum_hessian":[3.1089266E1,2.7322817E1,3.766451E0,1.1951382E0,2.6127678E1,2.7063289E0,1.0601219E0,2.0945524E1,5.1821537E0,1.6497738E0,1.056555E0,1.724321E1,3.7023149E0,4.0119147E0,1.1702392E0,3.804449E0,1.343876E1,1.0973349E0,2.60498E0,1.4567821E0,2.347667E0,9.048776E0,4.389985E0],"tree_param":{"num_deleted":"0","num_feature":"9","num_nodes":"23","size_leaf_vector":"1"}},{"base_weights":[7.267491E-2,1.02551475E-1,4.6788514E-2,2.351554E-1,1.6838357E-2,3.192811E-1,-8.273349E-3,1.470679E-1,-2.6245004E-2,3.075197E-2,1.1216146E-1,2.1873422E-2,1.23352416E-1,-6.789722E-2,2.4211262E-1,-1.8008578E-1,1.10643916E-1,-1.4060566E-1,3.1236878E-2,1.0670937E-1,-6.866818E-3,-1.2099229E-1,1.1089128E-2,-1.4624382E-2,-1.11377984E-1,1.0243236E-1,-2.6814403E-2],"categories":[],"categories_nodes":[],"categories_segments":[],"categories_sizes":[],"default_left":[0,0,0,0,0,0,0,0,0,0,0,0,0,0,0,0,0,0,0,0,0,0,0,0,0,0,0],"id":39,"left_children":[1,-1,3,5,7,9,-1,11,13,-1,-1,15,-1,17,19,21,-1,23,25,-1,-1,-1,-1,-1,-1,-1,-1],"loss_changes":[2.6894614E-1,0E0,2.1304691E-1,1.2373409E-1,1.9611417E-1,9.225845E-3,0E0,2.7765727E-1,3.1372193E-1,0E0,0E0,5.5252016E-1,0E0,1.759664E-1,1.22294456E-1,2.599172E-1,0E0,2.7670035E-1,4.3797535E-1,0E0,0E0,0E0,0E0,0E0,0E0,0E0,0E0],"parents":[2147483647,0,0,2,2,3,3,4,4,5,5,7,7,8,8,11,11,13,13,14,14,15,15,17,17,18,18],"right_children":[2,-1,4,6,8,10,-1,12,14,-1,-1,16,-1,18,20,22,-1,24,26,-1,-1,-1,-1,-1,-1,-1,-1],"split_conditions":[4.85E2,1.02551475E-1,4.7E1,2.527E1,2.26E1,1.5E1,-8.273349E-3,2.235E1,2.5E0,3.075197E-2,1.1216146E-1,9.5E1,1.23352416E-1,2.387E1,9.7E1,2.207E1,1.10643916E-1,1.9E1,2.421E1,1.0670937E-1,-6.866818E-3,-1.2099229E-1,1.1089128E-2,-1.4624382E-2,-1.11377984E-1,1.0243236E-1,-2.6814403E-2],"split_indices":[7,0,0,8,8,6,0,8,2,0,0,4,0,8,4,8,0,6,8,0,0,0,0,0,0,0,0],"split_type":[0,0,0,0,0,0,0,0,0,0,0,0,0,0,0,0,0,0,0,0,0,0,0,0,0,0,0],"sum_hessian":[3.9894638E1,2.4293418E0,3.7465298E1,4.199792E0,3.3265507E1,3.018164E0,1.1816282E0,7.6693954E0,2.559611E1,1.1860769E0,1.8320869E0,5.9376116E0,1.731784E0,2.28037E1,2.7924097E0,4.0569344E0,1.880677E0,1.2913874E1,9.889827E0,1.715056E0,1.0773538E0,1.5769767E0,2.4799578E0,1.0102081E1,2.8117926E0,2.2563124E0,7.633514E0],"tree_param":{"num_deleted":"0","num_feature":"9","num_nodes":"27","size_leaf_vector":"1"}},{"base_weights":[-5.1903803E-2,-3.1251144E-1,6.0818526E-3,-1.5442837E-2,-1.1674402E-1,-1.8485054E-1,6.565951E-2,3.3274632E-2,-3.1357262E-1,1.4837916E-1,-5.260684E-2,-1.0572171E-2,-1.1493313E-1,3.1045873E-2,3.0525213E-1,1.0587929E-1,-1.292707E-1,1.2708306E-1,-6.307373E-2,1.1295914E-1,1.8280102E-2,-2.7780017E-2,7.9327E-2,1.3338901E-1,-2.8639716E-1,1.0772133E-1,-2.1734461E-2,6.817258E-2,-7.48653E-3,-1.1505696E-1,1.2898725E-3],"categories":[],"categories_nodes":[],"categories_segments":[],"categories_sizes":[],"default_left":[0,0,0,0,0,0,0,0,0,0,0,0,0,0,0,0,0,0,0,0,0,0,0,0,0,0,0,0,0,0,0],"id":40,"left_children":[1,3,5,-1,-1,7,9,-1,11,13,15,-1,-1,17,19,21,23,25,-1,-1,-1,-1,-1,27,29,-1,-1,-1,-1,-1,-1],"loss_changes":[4.418793E-1,8.6357415E-2,2.942131E-1,0E0,0E0,2.6928258E-1,1.9992048E-1,0E0,7.462019E-2,2.0803505E-1,1.2085796E-1,0E0,0E0,2.091782E-1,6.314346E-2,1.3227569E-1,3.021337E-1,3.1556982E-1,0E0,0E0,0E0,0E0,0E0,5.138263E-2,1.2359738E-1,0E0,0E0,0E0,0E0,0E0,0E0],"parents":[2147483647,0,0,1,1,2,2,5,5,6,6,8,8,9,9,10,10,13,13,14,14,15,15,16,16,17,17,23,23,24,24],"right_children":[2,4,6,-1,-1,8,10,-1,12,14,16,-1,-1,18,20,22,24,26,-1,-1,-1,-1,-1,28,30,-1,-1,-1,-1,-1,-1],"split_conditions":[5.5E1,4.4E1,1.6E1,-1.5442837E-2,-1.1674402E-1,1.1E1,1.7E1,3.3274632E-2,4.99E2,7.1E1,-1.5E0,-1.0572171E-2,-1.1493313E-1,6.9E1,7.9E1,1E0,1E0,9.8E1,-6.307373E-2,1.1295914E-1,1.8280102E-2,-2.7780017E-2,7.9327E-2,7.6E1,5.92E2,1.0772133E-1,-2.1734461E-2,6.817258E-2,-7.48653E-3,-1.1505696E-1,1.2898725E-3],"split_indices":[0,4,6,0,0,6,6,0,7,0,3,0,0,0,0,1,1,4,0,0,0,0,0,4,7,0,0,0,0,0,0],"split_type":[0,0,0,0,0,0,0,0,0,0,0,0,0,0,0,0,0,0,0,0,0,0,0,0,0,0,0,0,0,0,0],"sum_hessian":[2.8115479E1,4.31826E0,2.3797218E1,1.3594385E0,2.9588215E0,5.159512E0,1.8637707E1,1.6065227E0,3.5529892E0,1.0817175E1,7.820533E0,1.0114286E0,2.5415606E0,6.873808E0,3.9433668E0,2.4254172E0,5.395116E0,5.255409E0,1.618399E0,2.6338208E0,1.3095461E0,1.2617645E0,1.1636527E0,2.0759447E0,3.319171E0,2.060345E0,3.1950638E0,1.0302097E0,1.045735E0,2.2485676E0,1.0706034E0],"tree_param":{"num_deleted":"0","num_feature":"9","num_nodes":"31","size_leaf_vector":"1"}},{"base_weights":[-4.847067E-2,-1.0386884E-1,-1.6431585E-2,2.0709788E-2,-2.5536546E-1,-9.112154E-2,5.0031338E-2,-1.5303184E-3,-1.03268825E-1,-8.642177E-2,8.025376E-2,1.2052195E-1,-1.2343723E-1,7.039112E-2,1.0187568E-2,-9.55476E-2,2.3708386E-2],"categories":[],"categories_nodes":[],"categories_segments":[],"categories_sizes":[],"default_left":[0,0,0,0,0,0,0,0,0,0,0,0,0,0,0,0,0],"id":41,"left_children":[1,-1,3,5,7,-1,9,-1,-1,-1,11,13,15,-1,-1,-1,-1],"loss_changes":[2.8182524E-1,0E0,2.5607735E-1,2.5667393E-1,8.446503E-2,0E0,2.697669E-1,0E0,0E0,0E0,2.0303155E-1,1.862267E-1,1.942113E-1,0E0,0E0,0E0,0E0],"parents":[2147483647,0,0,2,2,3,3,4,4,6,6,10,10,11,11,12,12],"right_children":[2,-1,4,6,8,-1,10,-1,-1,-1,12,14,16,-1,-1,-1,-1],"split_conditions":[4.93E2,-1.0386884E-1,2.25E0,-3.75E0,6.4E1,-9.112154E-2,1.3E1,-1.5303184E-3,-1.03268825E-1,-8.642177E-2,7E1,5.36E2,-7.5E-1,7.039112E-2,1.0187568E-2,-9.55476E-2,2.3708386E-2],"split_indices":[7,0,2,2,0,0,6,0,0,0,0,7,3,0,0,0,0],"split_type":[0,0,0,0,0,0,0,0,0,0,0,0,0,0,0,0,0],"sum_hessian":[2.9138027E1,1.878015E0,2.7260014E1,2.438308E1,2.8769338E0,1.2452527E0,2.3137827E1,1.0309392E0,1.8459946E0,1.1984782E0,2.1939348E1,1.8658928E1,3.2804208E0,7.3107305E0,1.1348197E1,1.37891E0,1.9015108E0],"tree_param":{"num_deleted":"0","num_feature":"9","num_nodes":"17","size_leaf_vector":"1"}},{"base_weights":[6.689387E-2,9.5188975E-2,4.3755677E-2,2.2169502E-1,1.5273272E-2,3.0560112E-1,-8.87319E-3,-4.7003597E-2,1.0457301E-1,2.9756334E-2,1.0727323E-1,9.935835E-2,-1.7147283E-1,-4.8696946E-2,1.5111654E-1,1.9685535E-1,-1.339163E-1,-2.9685035E-1,6.1957482E-2,-4.2927522E-2,2.1466449E-1,-1.1020015E-2,1.0136943E-1,-5.9933808E-2,3.8829965E-3,-1.4102036E-1,-1.548377E-2,7.1546614E-2,-8.581933E-2,8.236629E-2,-1.9057954E-2],"categories":[],"categories_nodes":[],"categories_segments":[],"categories_sizes":[],"default_left":[0,0,0,0,0,0,0,0,0,0,0,0,0,0,0,0,0,0,0,0,0,0,0,0,0,0,0,0,0,0,0],"id":42,"left_children":[1,-1,3,5,7,9,-1,11,13,-1,-1,15,17,-1,19,21,23,25,27,-1,29,-1,-1,-1,-1,-1,-1,-1,-1,-1,-1],"loss_changes":[2.1146962E-1,0E0,1.8294442E-1,1.14432275E-1,1.8713789E-1,5.6850314E-3,0E0,3.81274E-1,1.9561455E-1,0E0,0E0,2.4974722E-1,3.4535685E-1,0E0,2.5965688E-1,2.539621E-1,3.634525E-2,2.9181784E-1,3.5888475E-1,0E0,1.9188091E-1,0E0,0E0,0E0,0E0,0E0,0E0,0E0,0E0,0E0,0E0],"parents":[2147483647,0,0,2,2,3,3,4,4,5,5,7,7,8,8,11,11,12,12,14,14,15,15,16,16,17,17,18,18,20,20],"right_children":[2,-1,4,6,8,10,-1,12,14,-1,-1,16,18,-1,20,22,24,26,28,-1,30,-1,-1,-1,-1,-1,-1,-1,-1,-1,-1],"split_conditions":[4.85E2,9.5188975E-2,4.7E1,2.527E1,1.7E1,1.5E1,-8.87319E-3,1.6E1,4.9E1,2.9756334E-2,1.0727323E-1,1.18E2,1.05E2,-4.8696946E-2,5.22E2,7.9E1,1.4E1,6.9E1,1.65E2,-4.2927522E-2,2.4E1,-1.1020015E-2,1.0136943E-1,-5.9933808E-2,3.8829965E-3,-1.4102036E-1,-1.548377E-2,7.1546614E-2,-8.581933E-2,8.236629E-2,-1.9057954E-2],"split_indices":[7,0,0,8,6,6,0,6,0,0,0,4,4,0,7,4,6,0,4,0,6,0,0,0,0,0,0,0,0,0,0],"split_type":[0,0,0,0,0,0,0,0,0,0,0,0,0,0,0,0,0,0,0,0,0,0,0,0,0,0,0,0,0,0,0],"sum_hessian":[3.7895134E1,2.1300888E0,3.5765045E1,3.9989095E0,3.1766134E1,2.8357627E0,1.1631467E0,1.899372E1,1.2772414E1,1.1554506E0,1.680312E0,8.821897E0,1.01718235E1,1.5272269E0,1.1245188E1,6.3316917E0,2.4902048E0,6.440751E0,3.7310722E0,1.7751333E0,9.470055E0,2.6622128E0,3.6694791E0,1.470416E0,1.0197889E0,3.237348E0,3.2034028E0,2.684243E0,1.0468292E0,7.8032255E0,1.6668286E0],"tree_param":{"num_deleted":"0","num_feature":"9","num_nodes":"31","size_leaf_vector":"1"}},{"base_weights":[-4.432228E-2,-2.9230785E-1,9.365642E-3,-1.1353489E-1,-9.115084E-3,-1.6598183E-1,6.303819E-2,3.286323E-2,-2.9441673E-1,8.060657E-3,2.2155902E-1,-1.2367249E-2,-1.0883133E-1,7.331777E-2,-4.235936E-2,1.0150336E-1,6.0036004E-4,1.0151172E-1,-1.2084731E-1,-4.1414347E-2,5.9656356E-2,-1.1532307E-1,3.4895365E-3],"categories":[],"categories_nodes":[],"categories_segments":[],"categories_sizes":[],"default_left":[0,0,0,0,0,0,0,0,0,0,0,0,0,0,0,0,0,0,0,0,0,0,0],"id":43,"left_children":[1,3,5,-1,-1,7,9,-1,11,13,15,-1,-1,-1,17,-1,-1,19,21,-1,-1,-1,-1],"loss_changes":[3.6720118E-1,9.912261E-2,2.3136587E-1,0E0,0E0,2.3665054E-1,1.6115019E-1,0E0,5.7920814E-2,1.8812849E-1,1.21800005E-1,0E0,0E0,0E0,1.6073981E-1,0E0,0E0,1.4835179E-1,3.174547E-1,0E0,0E0,0E0,0E0],"parents":[2147483647,0,0,1,1,2,2,5,5,6,6,8,8,9,9,10,10,14,14,17,17,18,18],"right_children":[2,4,6,-1,-1,8,10,-1,12,14,16,-1,-1,-1,18,-1,-1,20,22,-1,-1,-1,-1],"split_conditions":[5.5E1,5.68E2,1.6E1,-1.1353489E-1,-9.115084E-3,1.1E1,2.431E1,3.286323E-2,1E0,-1.75E0,5.61E2,-1.2367249E-2,-1.0883133E-1,7.331777E-2,1E0,1.0150336E-1,6.0036004E-4,-1.25E0,6.7E1,-4.1414347E-2,5.9656356E-2,-1.1532307E-1,3.4895365E-3],"split_indices":[0,7,6,0,0,6,8,0,5,3,7,0,0,0,1,0,0,3,0,0,0,0,0],"split_type":[0,0,0,0,0,0,0,0,0,0,0,0,0,0,0,0,0,0,0,0,0,0,0],"sum_hessian":[2.637481E1,3.9028578E0,2.247195E1,2.602172E0,1.3006859E0,4.776078E0,1.7695871E1,1.5652655E0,3.2108128E0,1.3919291E1,3.7765815E0,1.023339E0,2.1874738E0,1.7710022E0,1.2148289E1,2.1121018E0,1.6644796E0,4.184541E0,7.9637475E0,1.088238E0,3.096303E0,2.0278127E0,5.935935E0],"tree_param":{"num_deleted":"0","num_feature":"9","num_nodes":"23","size_leaf_vector":"1"}},{"base_weights":[-4.79913E-2,-8.2353145E-2,1.6240935E-1,7.1503095E-2,-1.0669905E-1,7.399327E-2,8.429539E-3,-4.8736848E-2,-3.0042234E-1,-1.8032148E-1,2.7227027E-2,1.6309783E-2,-1.23452954E-1,-1.2570667E-1,8.465658E-2,9.008775E-2,-3.8187817E-2,-9.269291E-2,1.1170196E-1,-5.405553E-2,6.456523E-2],"categories":[],"categories_nodes":[],"categories_segments":[],"categories_sizes":[],"default_left":[0,0,0,0,0,0,0,0,0,0,0,0,0,0,0,0,0,0,0,0,0],"id":44,"left_children":[1,3,5,-1,7,-1,-1,9,11,13,15,-1,-1,-1,17,-1,19,-1,-1,-1,-1],"loss_changes":[2.2255348E-1,2.2479697E-1,4.2830832E-2,0E0,2.596035E-1,0E0,0E0,2.0475015E-1,2.3642367E-1,5.0660133E-1,2.53399E-1,0E0,0E0,0E0,6.0899633E-1,0E0,4.638703E-1,0E0,0E0,0E0,0E0],"parents":[2147483647,0,0,1,1,2,2,4,4,7,7,8,8,9,9,10,10,14,14,16,16],"right_children":[2,4,6,-1,8,-1,-1,10,12,14,16,-1,-1,-1,18,-1,20,-1,-1,-1,-1],"split_conditions":[2.2E1,5E0,5.4E1,7.1503095E-2,1.77E1,7.399327E-2,8.429539E-3,5.27E2,4.8E1,1E0,5.31E2,1.6309783E-2,-1.23452954E-1,-1.2570667E-1,9.9E1,9.008775E-2,2.427E1,-9.269291E-2,1.1170196E-1,-5.405553E-2,6.456523E-2],"split_indices":[6,4,0,0,6,0,0,7,0,2,7,0,0,0,4,0,8,0,0,0,0],"split_type":[0,0,0,0,0,0,0,0,0,0,0,0,0,0,0,0,0,0,0,0,0],"sum_hessian":[2.7933006E1,2.4534681E1,3.398324E0,1.1109383E0,2.3423742E1,1.574492E0,1.823832E0,1.8992691E1,4.431052E0,6.4486165E0,1.2544074E1,1.1783315E0,3.2527208E0,3.086685E0,3.3619318E0,1.7303549E0,1.081372E1,1.3883104E0,1.9736212E0,7.115466E0,3.6982532E0],"tree_param":{"num_deleted":"0","num_feature":"9","num_nodes":"21","size_leaf_vector":"1"}},{"base_weights":[5.5725943E-2,2.3403162E-1,2.5823334E-2,4.5588017E-3,1.0232438E-1,-4.479181E-3,2.0515224E-1,1.8286227E-1,-3.594673E-2,-3.607915E-2,9.946437E-2,-1.8829426E-2,8.8177785E-2,7.5943186E-3,-2.1844399E-1,9.764726E-2,-2.378616E-2,2.1561949E-2,-9.8868884E-2,-6.972252E-2,9.857397E-3],"categories":[],"categories_nodes":[],"categories_segments":[],